{"learner":{"attributes":{"best_iteration":"99","best_ntree_limit":"100","scikit_learn":"{\"use_label_encoder\": null, \"n_estimators\": 100, \"objective\": \"binary:logistic\", \"max_depth\": null, \"max_leaves\": null, \"max_bin\": null, \"grow_policy\": null, \"learning_rate\": null, \"verbosity\": null, \"booster\": null, \"tree_method\": null, \"gamma\": null, \"min_child_weight\": null, \"max_delta_step\": null, \"subsample\": null, \"sampling_method\": null, \"colsample_bytree\": null, \"colsample_bylevel\": null, \"colsample_bynode\": null, \"reg_alpha\": null, \"reg_lambda\": null, \"scale_pos_weight\": null, \"base_score\": null, \"missing\": NaN, \"num_parallel_tree\": null, \"random_state\": null, \"n_jobs\": null, \"monotone_constraints\": null, \"interaction_constraints\": null, \"importance_type\": null, \"gpu_id\": null, \"validate_parameters\": null, \"predictor\": null, \"enable_categorical\": false, \"feature_types\": null, \"max_cat_to_onehot\": null, \"max_cat_threshold\": null, \"eval_metric\": null, \"early_stopping_rounds\": null, \"callbacks\": null, \"classes_\": [0, 1], \"n_classes_\": 2, \"_estimator_type\": \"classifier\"}"},"feature_names":["account_length","number_vmail_messages","total_day_minutes","total_day_calls","total_day_charge","total_eve_minutes","total_eve_calls","total_eve_charge","total_night_minutes","total_night_calls","total_night_charge","total_intl_minutes","total_intl_calls","total_intl_charge","number_customer_service_calls","state_AK","state_AL","state_AR","state_AZ","state_CA","state_CO","state_CT","state_DC","state_DE","state_FL","state_GA","state_HI","state_IA","state_ID","state_IL","state_IN","state_KS","state_KY","state_LA","state_MA","state_MD","state_ME","state_MI","state_MN","state_MO","state_MS","state_MT","state_NC","state_ND","state_NE","state_NH","state_NJ","state_NM","state_NV","state_NY","state_OH","state_OK","state_OR","state_PA","state_RI","state_SC","state_SD","state_TN","state_TX","state_UT","state_VA","state_VT","state_WA","state_WI","state_WV","state_WY","area_code_area_code_408","area_code_area_code_415","area_code_area_code_510","international_plan_no","international_plan_yes","voice_mail_plan_no","voice_mail_plan_yes"],"feature_types":["float","float","float","float","float","float","float","float","float","float","float","float","float","float","float","float","float","float","float","float","float","float","float","float","float","float","float","float","float","float","float","float","float","float","float","float","float","float","float","float","float","float","float","float","float","float","float","float","float","float","float","float","float","float","float","float","float","float","float","float","float","float","float","float","float","float","float","float","float","float","float","float","float"],"gradient_booster":{"model":{"gbtree_model_param":{"num_parallel_tree":"1","num_trees":"100","size_leaf_vector":"0"},"tree_info":[0,0,0,0,0,0,0,0,0,0,0,0,0,0,0,0,0,0,0,0,0,0,0,0,0,0,0,0,0,0,0,0,0,0,0,0,0,0,0,0,0,0,0,0,0,0,0,0,0,0,0,0,0,0,0,0,0,0,0,0,0,0,0,0,0,0,0,0,0,0,0,0,0,0,0,0,0,0,0,0,0,0,0,0,0,0,0,0,0,0,0,0,0,0,0,0,0,0,0,0],"trees":[{"base_weights":[-1.437167E0,-1.5860642E0,4.054054E-2,-1.7228464E0,8.583691E-3,5.9555554E-1,-1.6266667E0,-5.425101E-1,-1.8401319E0,1.5876288E0,-1.0857143E0,-6.122449E-1,1.480916E0,-1.3333334E-1,-1.875E0,1.8431373E0,-1.14E0,-1.900716E0,-1.4404762E0,1.6956521E0,-2.2222222E-1,4.347826E-1,-1.338843E0,-1.4375E0,8.4210527E-1,-6.666667E-1,1.7606838E0,5.4545456E-1,-1E0,-1.8765432E0,1.8095238E0,-1.9057692E0,-9.4736844E-1,-1.7103448E0,2.4E-1,1.7701149E0,2.2222222E-1,1.3846154E0,-5.714286E-1,-1.509434E0,-1.0526316E-1,-1.661017E0,6.666667E-1,-8E-1,1.25E0,-1.4285715E0,1E0,8.5714287E-1,1.88E0,-1.8987342E0,-5E-1,-1.9075145E0,-5E-1,-1.4285715E0,2.2222222E-1,-1.7333333E0,-2.2222222E-1,8.717949E-1,-1.4666667E0,1.8072289E0,5E-1,5E-1,-1.2E0,-0E0,-1.6E0,1.1111112E0,-8.5714287E-1,-1.7818182E0,-0E0,-6.666667E-1,1.7037038E0,1.4666667E0,-4E-1],"categories":[],"categories_nodes":[],"categories_segments":[],"categories_sizes":[],"default_left":[1,1,1,1,1,1,1,1,1,1,1,1,1,1,0,0,1,1,1,1,0,1,1,1,1,1,1,0,0,1,0,1,1,1,1,1,0,0,1,1,1,1,0,0,1,0,0,1,0,0,0,0,0,0,0,0,0,0,0,0,0,0,0,0,0,0,0,0,0,0,0,0,0],"id":0,"left_children":[1,3,5,7,9,11,13,15,17,19,21,23,25,27,-1,-1,29,31,33,35,-1,37,39,41,43,45,47,-1,-1,49,-1,51,53,55,57,59,-1,-1,61,63,65,67,-1,-1,69,-1,-1,71,-1,-1,-1,-1,-1,-1,-1,-1,-1,-1,-1,-1,-1,-1,-1,-1,-1,-1,-1,-1,-1,-1,-1,-1,-1],"loss_changes":[1.7559033E2,1.5809692E2,6.9442825E1,9.140796E1,1.0237656E2,6.105699E1,6.703331E0,9.0119644E1,1.1953125E1,5.117836E0,1.4052956E1,3.061567E1,2.0850792E1,2.7515152E0,0E0,0E0,1.1201823E2,7.1777344E-1,3.8505142E1,2.130104E0,0E0,6.2866697E0,6.206848E0,8.632416E0,7.363158E0,7.1428566E0,1.5419235E0,0E0,0E0,2.8778076E-1,0E0,3.2202148E-1,2.9908104E0,2.0950165E0,1.4756923E1,1.21665955E-1,0E0,0E0,2.9571428E0,3.6226425E0,5.2965746E0,2.959629E0,0E0,0E0,8.092592E0,0E0,0E0,4.6095233E0,0E0,0E0,0E0,0E0,0E0,0E0,0E0,0E0,0E0,0E0,0E0,0E0,0E0,0E0,0E0,0E0,0E0,0E0,0E0,0E0,0E0,0E0,0E0,0E0,0E0],"parents":[2147483647,0,0,1,1,2,2,3,3,4,4,5,5,6,6,7,7,8,8,9,9,10,10,11,11,12,12,13,13,16,16,17,17,18,18,19,19,21,21,22,22,23,23,24,24,25,25,26,26,29,29,31,31,32,32,33,33,34,34,35,35,38,38,39,39,40,40,41,41,44,44,47,47],"right_children":[2,4,6,8,10,12,14,16,18,20,22,24,26,28,-1,-1,30,32,34,36,-1,38,40,42,44,46,48,-1,-1,50,-1,52,54,56,58,60,-1,-1,62,64,66,68,-1,-1,70,-1,-1,72,-1,-1,-1,-1,-1,-1,-1,-1,-1,-1,-1,-1,-1,-1,-1,-1,-1,-1,-1,-1,-1,-1,-1,-1,-1],"split_conditions":[7.209104E-1,3.888889E-1,1.3461539E-1,5E-1,4.5590326E-1,5.2584493E-1,5E-1,1.25E-1,6.3115215E-1,6.878736E-1,4.2473727E-1,7.903272E-1,2.8693426E-1,7.817923E-1,-5.625E-1,5.529412E-1,6.525E-1,9.257313E-1,7.1158767E-1,7.593013E-1,-6.666667E-2,5.617354E-1,6.0916597E-1,6.48164E-1,3.9264414E-1,8.021337E-1,5.687305E-1,1.6363637E-1,-3E-1,7.13229E-1,5.4285717E-1,9.4372296E-1,6.151515E-1,7.55E-1,1.0576923E-1,7.970588E-1,6.666667E-2,4.1538465E-1,5E-1,5E-1,4.375E-1,7.35E-1,2.0000002E-1,-2.4000001E-1,3.0799884E-1,-4.2857146E-1,3E-1,5.491338E-1,5.64E-1,-5.696203E-1,-1.5E-1,-5.7225436E-1,-1.5E-1,-4.2857146E-1,6.666667E-2,-5.2000004E-1,-6.666667E-2,2.6153848E-1,-4.4000003E-1,5.421687E-1,1.5E-1,1.5E-1,-3.6E-1,-0E0,-4.8000002E-1,3.3333337E-1,-2.5714287E-1,-5.345455E-1,-0E0,-2.0000002E-1,5.1111114E-1,4.4000003E-1,-1.20000005E-1],"split_indices":[2,14,1,69,2,5,69,12,2,8,5,2,8,2,0,0,11,5,5,5,0,2,8,8,5,2,5,0,0,2,0,0,3,11,1,6,0,0,67,69,11,11,0,0,8,0,0,5,0,0,0,0,0,0,0,0,0,0,0,0,0,0,0,0,0,0,0,0,0,0,0,0,0],"split_type":[0,0,0,0,0,0,0,0,0,0,0,0,0,0,0,0,0,0,0,0,0,0,0,0,0,0,0,0,0,0,0,0,0,0,0,0,0,0,0,0,0,0,0,0,0,0,0,0,0,0,0,0,0,0,0,0,0,0,0,0,0,0,0,0,0,0,0,0,0,0,0,0,0],"sum_hessian":[7.9675E2,7.2375E2,7.3E1,6.665E2,5.725E1,5.525E1,1.775E1,6.075E1,6.0575E2,2.325E1,3.4E1,2.35E1,3.175E1,2.75E0,1.5E1,1.175E1,4.9E1,5.2275E2,8.3E1,2.2E1,1.25E0,4.75E0,2.925E1,1.5E1,8.5E0,3.5E0,2.825E1,1.75E0,1E0,3.95E1,9.5E0,5.19E2,3.75E0,7.15E1,1.15E1,2.075E1,1.25E0,2.25E0,2.5E0,2.55E1,3.75E0,1.375E1,1.25E0,1.5E0,7E0,2.5E0,1E0,4.25E0,2.4E1,3.85E1,1E0,5.18E2,1E0,2.5E0,1.25E0,7.025E1,1.25E0,8.75E0,2.75E0,1.975E1,1E0,1E0,1.5E0,1.5E0,2.4E1,1.25E0,2.5E0,1.275E1,1E0,1.25E0,5.75E0,2.75E0,1.5E0],"tree_param":{"num_deleted":"0","num_feature":"73","num_nodes":"73","size_leaf_vector":"0"}},{"base_weights":[-1.0971197E0,-1.1906061E0,3.3806077E-1,-1.2933373E0,-1.0133714E-2,8.435695E-1,-1.1695285E0,-4.0949562E-1,-1.3830004E0,1.220432E0,-8.1728035E-1,-9.561305E-1,1.1097727E0,4.5267668E-2,-1.4130815E0,1.4741405E0,-8.770815E-1,-1.431699E0,-6.421019E-1,1.3776165E0,1.7753059E-1,2.0173383E-1,-9.9755335E-1,-5.409638E-2,-1.225333E0,-1.061196E0,1.2704824E0,-1.4382471E0,1.4308549E0,-1.4611169E0,-1.1950705E0,-1.4187365E0,2.9158962E-1,1.4977148E0,6.03678E-1,9.724383E-1,-4.7574717E-1,1.1340214E0,-6.017238E-1,2.207303E-1,-1.1104314E0,6.9637233E-1,1.4807715E0,-3.7450325E-1,-1.4602597E0,-1.4648728E0,-7.6079226E-1,-1.3720556E0,5.9592557E-1,-3.9153072E-1,-1.4599282E0,7.5326395E-1,-1.06586E0,1.1322627E0,-4.2344305E-1,-7.934481E-2,-9.691965E-1,8.6319E-1,-5.2843475E-1,3.1380028E-2,-1.2253207E0,-9.563072E-2,1.3352864E0,4.5107126E-1,1.5197806E0],"categories":[],"categories_nodes":[],"categories_segments":[],"categories_sizes":[],"default_left":[1,1,1,1,1,1,1,1,1,1,1,1,1,0,0,0,1,1,1,1,1,1,1,0,0,0,1,1,0,1,1,1,1,0,1,0,0,0,1,1,1,1,1,0,0,0,0,0,0,0,0,0,0,0,0,0,0,0,0,0,0,0,0,0,0],"id":1,"left_children":[1,3,5,7,9,11,13,15,17,19,21,23,25,-1,-1,-1,27,29,31,33,35,37,39,-1,-1,-1,41,43,-1,45,47,49,51,-1,53,-1,-1,-1,55,57,59,61,63,-1,-1,-1,-1,-1,-1,-1,-1,-1,-1,-1,-1,-1,-1,-1,-1,-1,-1,-1,-1,-1,-1],"loss_changes":[9.977759E1,8.43421E1,3.6100082E1,5.0144043E1,5.7310318E1,1.7870216E1,3.6110744E0,5.4453186E1,2.00271E1,3.5025826E0,6.600868E0,1.161994E0,1.2173645E1,0E0,0E0,0E0,6.54948E1,2.0401611E0,2.769195E1,9.284897E-1,2.6134982E0,5.2279334E0,4.3388424E0,0E0,0E0,0E0,2.5115318E0,3.8741302E-1,0E0,1.4624023E-1,2.1622818E1,3.0454254E-1,1.2027906E1,0E0,2.8269353E0,0E0,0E0,0E0,6.741898E-1,2.0726042E0,3.6341934E0,5.0637617E0,1.4150238E-1,0E0,0E0,0E0,0E0,0E0,0E0,0E0,0E0,0E0,0E0,0E0,0E0,0E0,0E0,0E0,0E0,0E0,0E0,0E0,0E0,0E0,0E0],"parents":[2147483647,0,0,1,1,2,2,3,3,4,4,5,5,6,6,7,7,8,8,9,9,10,10,11,11,12,12,16,16,17,17,18,18,19,19,20,20,21,21,22,22,26,26,27,27,29,29,30,30,31,31,32,32,34,34,38,38,39,39,40,40,41,41,42,42],"right_children":[2,4,6,8,10,12,14,16,18,20,22,24,26,-1,-1,-1,28,30,32,34,36,38,40,-1,-1,-1,42,44,-1,46,48,50,52,-1,54,-1,-1,-1,56,58,60,62,64,-1,-1,-1,-1,-1,-1,-1,-1,-1,-1,-1,-1,-1,-1,-1,-1,-1,-1,-1,-1,-1,-1],"split_conditions":[7.5504977E-1,3.888889E-1,1.3461539E-1,5E-1,4.5590326E-1,3.9264414E-1,5E-1,1.25E-1,6.953058E-1,6.2781096E-1,4.2473727E-1,5.4848486E-1,2.0552234E-1,1.3580301E-2,-4.2392448E-1,4.4224218E-1,6.525E-1,6.283072E-1,5.8051693E-1,6.613178E-1,3.5334283E-1,5.617354E-1,4.3939394E-1,-1.6228914E-2,-3.675999E-1,-3.183588E-1,5.1363254E-1,1.6823228E-1,4.292565E-1,9.257313E-1,7.602954E-1,2.0774648E-1,1.0576923E-1,4.4931445E-1,3.8947368E-1,2.917315E-1,-1.4272416E-1,3.4020644E-1,3.9037204E-1,6.059358E-1,5E-1,8.112376E-1,2.2887325E-1,-1.1235098E-1,-4.3807793E-1,-4.3946186E-1,-2.2823769E-1,-4.116167E-1,1.7877768E-1,-1.1745922E-1,-4.3797848E-1,2.259792E-1,-3.1975803E-1,3.3967882E-1,-1.2703292E-1,-2.3803445E-2,-2.9075897E-1,2.58957E-1,-1.5853043E-1,9.414009E-3,-3.675962E-1,-2.8689217E-2,4.0058592E-1,1.3532138E-1,4.559342E-1],"split_indices":[2,14,1,69,2,5,69,12,2,8,5,3,8,0,0,0,11,2,5,5,2,2,3,0,0,0,5,8,0,5,5,9,1,0,2,0,0,0,5,5,69,2,9,0,0,0,0,0,0,0,0,0,0,0,0,0,0,0,0,0,0,0,0,0,0],"split_type":[0,0,0,0,0,0,0,0,0,0,0,0,0,0,0,0,0,0,0,0,0,0,0,0,0,0,0,0,0,0,0,0,0,0,0,0,0,0,0,0,0,0,0,0,0,0,0,0,0,0,0,0,0,0,0,0,0,0,0,0,0,0,0,0,0],"sum_hessian":[7.396657E2,6.94591E2,4.5074688E1,6.3889526E2,5.5695755E1,3.408584E1,1.0988849E1,5.935713E1,5.7953815E2,2.185851E1,3.3837246E1,4.058192E0,3.0027649E1,1.9711688E0,9.01768E0,1.1376212E1,4.7980915E1,5.4292004E2,3.6618073E1,1.8716621E1,3.1418872E0,5.0684123E0,2.8768833E1,1.2087858E0,2.849406E0,1.6834434E0,2.8344204E1,3.8899487E1,9.0814295E0,4.7828442E2,6.463563E1,1.9706732E1,1.691134E1,1.539281E1,3.3238125E0,1.1969216E0,1.9449655E0,2.1556683E0,2.912744E0,2.3584802E0,2.6410353E1,8.75465E0,1.9589554E1,1.1538454E0,3.774564E1,4.746472E2,3.6372411E0,5.9035667E1,5.5999565E0,1.1648066E0,1.8541925E1,1.2951553E1,3.9597886E0,2.1268907E0,1.1969217E0,1.7049711E0,1.207773E0,1.1877239E0,1.1707563E0,2.4809196E0,2.3929432E1,4.288685E0,4.4659653E0,1.1736118E0,1.8415943E1],"tree_param":{"num_deleted":"0","num_feature":"73","num_nodes":"65","size_leaf_vector":"0"}},{"base_weights":[-9.181788E-1,-1.0378844E0,-9.6595734E-2,-1.1369249E0,9.765936E-3,2.018604E-1,-1.0715674E0,-3.6023292E-1,-1.2120771E0,1.0245905E0,-6.8419164E-1,-4.6243083E-1,9.104331E-1,-1.9301029E-1,-1.2423048E0,1.2280184E0,-7.581626E-1,-1.2417254E0,-9.655189E-1,1.2128717E0,2.6963624E-1,3.870562E-1,-8.707827E-1,-8.983021E-1,6.70857E-1,-6.689627E-2,1.2798268E0,-7.3558885E-1,4.2705345E-1,-2.0343813E-1,-1.2984109E0,-1.2599453E0,1.2095561E0,-1.243818E0,-2.760194E-1,-1.1197002E0,4.554844E-1,1.2890936E0,3.4108746E-1,9.1523415E-1,-8.496384E-1,9.7271734E-1,-2.8482917E-1,-1.597613E-1,-1.0519611E0,3.3712033E-2,-1.0727737E0,-5.334796E-1,9.3233734E-1,-8.4578264E-1,8.5248584E-1,6.310359E-1,1.3546561E0,-3.2105651E-1,-1.2846336E0,-1.2478287E0,-6.041713E-1,-1.1490011E0,3.975523E-2,1.027668E0,7.188321E-4,1.5379993E0,-1.143021E0,1.620489E-1,-1.2112981E0,8.179319E-1,-4.0432385E-1,-1.1709663E0,1.4654252E-1,-3.6969498E-1,1.2439965E0,-1.1789793E0,1.1577829E-1,1.5111265E-1,1.0146302E0,-2.8915152E-1,1.0390184E0,1.3936949E0,4.39428E-1],"categories":[],"categories_nodes":[],"categories_segments":[],"categories_sizes":[],"default_left":[1,1,1,1,1,1,1,1,1,1,1,1,1,1,1,0,1,1,1,1,1,1,1,1,1,1,1,0,0,0,0,1,0,1,0,1,1,0,0,0,0,0,0,1,1,1,1,0,1,1,1,1,1,0,0,0,0,0,0,0,0,0,0,0,0,0,0,0,0,0,0,0,0,0,0,0,0,0,0],"id":2,"left_children":[1,3,5,7,9,11,13,15,17,19,21,23,25,27,29,-1,31,33,35,37,39,41,43,45,47,49,51,-1,-1,-1,-1,53,-1,55,-1,57,59,-1,-1,-1,-1,-1,-1,61,63,65,67,-1,69,71,73,75,77,-1,-1,-1,-1,-1,-1,-1,-1,-1,-1,-1,-1,-1,-1,-1,-1,-1,-1,-1,-1,-1,-1,-1,-1,-1,-1],"loss_changes":[6.2730896E1,5.785901E1,2.4178568E1,2.9295532E1,3.5310894E1,3.0493818E1,2.679079E0,3.023194E1,2.1929932E0,2.5668182E0,6.290823E0,1.721891E1,1.1367945E1,1.7776853E0,6.7476654E-1,0E0,3.8738937E1,4.8669434E-1,1.2407368E1,6.240883E-1,4.643315E0,2.2881498E0,3.1394596E0,4.056219E0,3.6201415E0,7.5398636E0,2.4862671E-1,0E0,0E0,0E0,0E0,2.9506683E-1,0E0,2.9675293E-1,0E0,1.7197762E0,1.5673082E0,0E0,0E0,0E0,0E0,0E0,0E0,1.2429898E1,4.119625E0,2.0028539E0,2.6684418E0,0E0,3.913725E0,1.9489379E0,3.999741E-1,1.8856301E0,8.452988E-2,0E0,0E0,0E0,0E0,0E0,0E0,0E0,0E0,0E0,0E0,0E0,0E0,0E0,0E0,0E0,0E0,0E0,0E0,0E0,0E0,0E0,0E0,0E0,0E0,0E0,0E0],"parents":[2147483647,0,0,1,1,2,2,3,3,4,4,5,5,6,6,7,7,8,8,9,9,10,10,11,11,12,12,13,13,14,14,16,16,17,17,18,18,19,19,20,20,21,21,22,22,23,23,24,24,25,25,26,26,31,31,33,33,35,35,36,36,43,43,44,44,45,45,46,46,48,48,49,49,50,50,51,51,52,52],"right_children":[2,4,6,8,10,12,14,16,18,20,22,24,26,28,30,-1,32,34,36,38,40,42,44,46,48,50,52,-1,-1,-1,-1,54,-1,56,-1,58,60,-1,-1,-1,-1,-1,-1,62,64,66,68,-1,70,72,74,76,78,-1,-1,-1,-1,-1,-1,-1,-1,-1,-1,-1,-1,-1,-1,-1,-1,-1,-1,-1,-1,-1,-1,-1,-1,-1,-1],"split_conditions":[6.945946E-1,3.888889E-1,1.0576923E-1,5E-1,4.5590326E-1,5.717126E-1,5E-1,1.25E-1,6.3115215E-1,6.613178E-1,4.2473727E-1,7.903272E-1,3.580985E-1,5.5555556E-2,3.1E-1,3.6840552E-1,6.525E-1,8.942307E-1,7.593013E-1,6.558497E-1,3.9388335E-1,5.617354E-1,5.0042677E-1,5E-1,3.9264414E-1,7.6258886E-1,4.054939E-1,-2.2067666E-1,1.2811604E-1,-6.1031442E-2,-3.895233E-1,1.6823228E-1,3.6286685E-1,9.257313E-1,-8.280582E-2,7.55E-1,6.212121E-1,3.867281E-1,1.02326244E-1,2.7457026E-1,-2.5489154E-1,2.9181522E-1,-8.544876E-2,6.025277E-1,5E-1,1.25E-1,7.4E-1,-1.6004388E-1,3.0799884E-1,7.1414375E-1,2.7156276E-1,6.194263E-1,5E-1,-9.6316956E-2,-3.853901E-1,-3.7434864E-1,-1.8125139E-1,-3.4470034E-1,1.1926569E-2,3.083004E-1,2.1564963E-4,4.613998E-1,-3.429063E-1,4.8614673E-2,-3.6338943E-1,2.4537958E-1,-1.2129716E-1,-3.512899E-1,4.3962758E-2,-1.109085E-1,3.7319896E-1,-3.5369378E-1,3.473349E-2,4.5333795E-2,3.0438906E-1,-8.6745456E-2,3.1170553E-1,4.181085E-1,1.3182841E-1],"split_indices":[2,14,1,69,2,5,69,12,2,5,5,2,8,14,11,0,11,1,5,8,2,2,2,69,5,2,8,0,0,0,0,8,0,5,0,11,3,0,0,0,0,0,0,5,69,12,11,0,8,5,8,5,41,0,0,0,0,0,0,0,0,0,0,0,0,0,0,0,0,0,0,0,0,0,0,0,0,0,0],"split_type":[0,0,0,0,0,0,0,0,0,0,0,0,0,0,0,0,0,0,0,0,0,0,0,0,0,0,0,0,0,0,0,0,0,0,0,0,0,0,0,0,0,0,0,0,0,0,0,0,0,0,0,0,0,0,0,0,0,0,0,0,0,0,0,0,0,0,0,0,0,0,0,0,0,0,0,0,0,0,0],"sum_hessian":[6.3786566E2,5.565172E2,8.134843E1,5.0837256E2,4.8144646E1,6.2889725E1,1.8458704E1,4.5361282E1,4.630113E2,1.9358646E1,2.8786E1,3.26384E1,3.0251324E1,3.3501925E0,1.5108512E1,8.670162E0,3.669112E1,4.0970825E2,5.3303043E1,1.5008951E1,4.3496947E0,4.1108155E0,2.4675184E1,2.3722063E1,8.916339E0,8.522275E0,2.172905E1,1.6873701E0,1.6628225E0,1.0111889E0,1.4097322E1,2.9522388E1,7.168732E0,4.0853497E2,1.1732702E0,4.827695E1,5.026096E0,1.3361999E1,1.646952E0,2.8741698E0,1.4755249E0,1.9571165E0,2.1536992E0,5.392907E0,1.9282276E1,3.8677285E0,1.9854334E1,1.4049834E0,7.511356E0,4.6569943E0,3.8652809E0,3.2224581E0,1.8506592E1,1.115227E0,2.840716E1,4.0504446E2,3.490518E0,4.7095795E1,1.1811538E0,1.6678457E0,3.3582501E0,1.7709261E0,3.6219811E0,2.2351725E0,1.7047104E1,1.0753132E0,2.7924154E0,1.8411308E1,1.4430256E0,1.4147356E0,6.09662E0,3.290628E0,1.3663664E0,1.0885601E0,2.7767208E0,1.0793328E0,2.1431255E0,1.7248093E1,1.2584977E0],"tree_param":{"num_deleted":"0","num_feature":"73","num_nodes":"79","size_leaf_vector":"0"}},{"base_weights":[-7.9830927E-1,-9.0922517E-1,-7.655485E-2,-1.0025921E0,1.8449707E-2,1.7936006E-1,-9.317378E-1,-3.124917E-1,-1.0689346E0,8.8519984E-1,-5.562004E-1,-4.9641672E-1,6.727346E-1,-1.067163E0,8.4767856E-2,1.1013972E0,-6.720802E-1,-1.1030191E0,-8.192386E-1,9.859419E-1,-2.6147088E-1,6.2756705E-1,-6.876637E-1,-7.976977E-1,5.9960485E-1,-2.5030425E-1,1.0853513E0,-1.5823734E-1,-1.1229106E0,-1.1283525E0,1.0810876E0,-1.1077639E0,-4.8477367E-1,-9.757362E-1,4.1416883E-1,1.1494677E0,2.372395E-1,2.1693042E-1,7.5717425E-1,-8.398953E-1,1.6627209E-1,-9.259954E-1,6.481185E-1,-3.503853E-1,9.024897E-1,-7.352408E-1,9.656203E-1,5.457827E-1,1.2282444E0,-1.2063247E0,-4.2217165E-1,-2.7592018E-1,-1.1550376E0,-1.1124809E0,-4.7631532E-1,-9.7158647E-1,4.1751942E-1,-1.0040586E0,3.323788E-2,1.068695E0,-6.8757676E-2,3.1215125E-1,1.2035316E0,-6.523654E-1,8.6360264E-1,-6.285008E-2,-1.0798283E0,9.7696775E-1,-6.6905415E-1,-1.9141449E-1,-1.0274239E0,-1.0828605E0,1.2836726E-1,-4.6555623E-1,1.2579432E0,3.547898E-1,1.2600087E0],"categories":[],"categories_nodes":[],"categories_segments":[],"categories_sizes":[],"default_left":[1,1,1,1,1,1,1,1,1,1,1,1,1,1,0,0,1,1,1,1,0,1,1,1,1,1,1,0,1,1,0,1,1,1,1,1,1,0,0,1,1,1,0,0,0,1,0,1,1,0,0,0,0,0,0,0,0,0,0,0,0,0,0,0,0,0,0,0,0,0,0,0,0,0,0,0,0],"id":3,"left_children":[1,3,5,7,9,11,13,15,17,19,21,23,25,27,-1,-1,29,31,33,35,-1,37,39,41,43,45,47,-1,49,51,-1,53,55,57,59,61,63,-1,-1,65,67,69,-1,-1,-1,71,-1,73,75,-1,-1,-1,-1,-1,-1,-1,-1,-1,-1,-1,-1,-1,-1,-1,-1,-1,-1,-1,-1,-1,-1,-1,-1,-1,-1,-1,-1],"loss_changes":[4.264099E1,4.0065613E1,1.5959579E1,1.8899475E1,2.2040018E1,1.9131031E1,2.4006395E0,2.0190933E1,2.3547058E0,2.2947454E0,4.5755234E0,8.52441E0,1.2844461E1,5.764103E-1,0E0,0E0,2.6114468E1,4.4262695E-1,1.0030258E1,1.737484E0,0E0,5.2286386E-3,3.3172684E0,4.225074E0,1.9922094E0,7.202353E0,1.1030235E0,0E0,3.0076218E-1,2.5416183E-1,0E0,4.5495605E-1,2.3039606E0,1.3065338E0,2.0702577E0,2.2255898E-1,2.905522E0,0E0,0E0,3.8307285E0,3.7234259E0,1.1713552E0,0E0,0E0,0E0,2.6724825E0,0E0,5.3504443E0,3.530693E-2,0E0,0E0,0E0,0E0,0E0,0E0,0E0,0E0,0E0,0E0,0E0,0E0,0E0,0E0,0E0,0E0,0E0,0E0,0E0,0E0,0E0,0E0,0E0,0E0,0E0,0E0,0E0,0E0],"parents":[2147483647,0,0,1,1,2,2,3,3,4,4,5,5,6,6,7,7,8,8,9,9,10,10,11,11,12,12,13,13,16,16,17,17,18,18,19,19,21,21,22,22,23,23,24,24,25,25,26,26,28,28,29,29,31,31,32,32,33,33,34,34,35,35,36,36,39,39,40,40,41,41,45,45,47,47,48,48],"right_children":[2,4,6,8,10,12,14,16,18,20,22,24,26,28,-1,-1,30,32,34,36,-1,38,40,42,44,46,48,-1,50,52,-1,54,56,58,60,62,64,-1,-1,66,68,70,-1,-1,-1,72,-1,74,76,-1,-1,-1,-1,-1,-1,-1,-1,-1,-1,-1,-1,-1,-1,-1,-1,-1,-1,-1,-1,-1,-1,-1,-1,-1,-1,-1,-1],"split_conditions":[6.945946E-1,3.888889E-1,1.0576923E-1,5E-1,4.5590326E-1,5.2641296E-1,6.8E-1,1.25E-1,6.283072E-1,6.878736E-1,4.025845E-1,8.112376E-1,3.580985E-1,7.0796585E-1,2.5430357E-2,3.3041915E-1,6.525E-1,9.257313E-1,7.602954E-1,4.3129444E-1,-7.844127E-2,6.575757E-1,6.0915494E-1,6.48164E-1,3.9264414E-1,7.923186E-1,7.2162163E-1,-4.7471203E-2,7.193979E-1,1.6823228E-1,3.2432628E-1,5E-1,6.151515E-1,7.55E-1,6.212121E-1,4.4242424E-1,4.389758E-1,6.507913E-2,2.2715229E-1,5.0042677E-1,6E-1,5E-1,1.9443555E-1,-1.051156E-1,2.7074692E-1,6.853167E-1,2.8968608E-1,5.0540847E-1,3.025E-1,-3.618974E-1,-1.266515E-1,-8.2776055E-2,-3.465113E-1,-3.337443E-1,-1.428946E-1,-2.9147595E-1,1.2525584E-1,-3.012176E-1,9.9713635E-3,3.206085E-1,-2.0627303E-2,9.364538E-2,3.610595E-1,-1.9570963E-1,2.590808E-1,-1.8855024E-2,-3.239485E-1,2.9309034E-1,-2.0071626E-1,-5.7424348E-2,-3.0822718E-1,-3.2485816E-1,3.851018E-2,-1.3966687E-1,3.7738296E-1,1.06436945E-1,3.780026E-1],"split_indices":[2,14,1,69,2,5,11,12,2,8,5,2,8,2,0,0,11,5,5,2,0,3,9,8,5,2,2,0,5,8,0,19,3,11,3,3,2,0,0,2,6,69,0,0,0,5,0,8,11,0,0,0,0,0,0,0,0,0,0,0,0,0,0,0,0,0,0,0,0,0,0,0,0,0,0,0,0],"split_type":[0,0,0,0,0,0,0,0,0,0,0,0,0,0,0,0,0,0,0,0,0,0,0,0,0,0,0,0,0,0,0,0,0,0,0,0,0,0,0,0,0,0,0,0,0,0,0,0,0,0,0,0,0,0,0,0,0,0,0,0,0,0,0,0,0,0,0,0,0,0,0,0,0,0,0,0,0],"sum_hessian":[5.3252216E2,4.6136237E2,7.115979E1,4.1910074E2,4.2261635E1,5.537808E1,1.57817135E1,3.7257294E1,3.8184344E2,1.6633202E1,2.5628431E1,2.33666E1,3.2011475E1,1.3882381E1,1.8993319E0,7.135974E0,3.012132E1,3.329736E2,4.886983E1,1.5418742E1,1.2144604E0,2.1844795E0,2.3443953E1,1.8541883E1,4.8247166E0,1.0010652E1,2.2000824E1,1.0240719E0,1.285831E1,2.418375E1,5.9375706E0,3.296519E2,3.321716E0,4.3552677E1,5.317154E0,1.2215455E1,3.2032871E0,1.1655145E0,1.018965E0,1.9910872E1,3.5330803E0,1.7360863E1,1.1810203E0,1.1284711E0,3.6962454E0,7.439103E0,2.5715487E0,5.615615E0,1.638521E1,1.08457575E1,2.0125523E0,1.078299E0,2.3105452E1,3.2645145E2,3.2004404E0,2.1077356E0,1.2139803E0,4.236825E1,1.1844246E0,1.7425133E0,3.5746408E0,1.1517297E0,1.1063725E1,1.3063723E0,1.8969147E0,4.9952474E0,1.4915624E1,1.7069234E0,1.8261569E0,2.4565856E0,1.4904278E1,5.1230803E0,2.3160226E0,2.4634898E0,3.1521251E0,1.001987E0,1.5383223E1],"tree_param":{"num_deleted":"0","num_feature":"73","num_nodes":"77","size_leaf_vector":"0"}},{"base_weights":[-7.0338047E-1,-7.752802E-1,2.591701E-1,-8.595069E-1,2.3779768E-2,5.81198E-1,-7.1779984E-1,-2.4685594E-1,-9.2284214E-1,9.4983554E-1,-3.471337E-1,-3.8066402E-1,8.049125E-1,1.6360106E-1,-1.0053082E0,1.0687484E0,-5.8605295E-1,-9.966338E-1,-5.979738E-1,1.0817478E0,-2.3059782E-1,-9.714668E-3,-7.945911E-1,5.040687E-1,-7.9270846E-1,-8.1637603E-1,9.692756E-1,-9.982551E-1,1.0309365E0,-1.0020696E0,-3.1431568E-1,-7.9902333E-1,1.5879203E-1,3.0630696E-1,1.135143E0,6.3411564E-1,-7.4011546E-1,-1.1557089E0,2.2001886E-1,5.4266226E-1,1.0825995E0,-1.048195E0,-3.0732253E-1,-1.009865E0,-5.1464146E-1,-7.3290646E-1,3.8342848E-1,-8.396653E-1,1.586764E-1,5.4669946E-1,-1.0221096E0,1.3083093E0,1.0159861E-1,-9.672762E-1,4.5595703E-1,8.166986E-1,-5.125137E-1,-2.0215286E-1,8.653359E-1],"categories":[],"categories_nodes":[],"categories_segments":[],"categories_sizes":[],"default_left":[1,1,1,1,1,1,1,1,1,1,1,1,1,0,0,0,1,1,1,1,0,1,1,0,0,0,1,1,0,1,1,1,1,0,0,1,1,0,1,1,0,0,0,0,0,0,0,0,0,0,0,0,0,0,0,0,0,0,0],"id":4,"left_children":[1,3,5,7,9,11,13,15,17,19,21,23,25,-1,-1,-1,27,29,31,33,-1,35,37,-1,-1,-1,39,41,-1,43,45,47,49,-1,-1,51,53,-1,55,57,-1,-1,-1,-1,-1,-1,-1,-1,-1,-1,-1,-1,-1,-1,-1,-1,-1,-1,-1],"loss_changes":[3.0712463E1,2.7646698E1,1.0293613E1,1.4182068E1,1.4108643E1,5.5057898E0,2.2499738E0,1.6762527E1,7.4637756E0,2.0775108E0,4.4273367E0,2.3092136E0,6.1007338E0,0E0,0E0,0E0,2.0620708E1,6.9558716E-1,9.975605E0,9.680271E-2,0E0,8.8205805E0,4.8766837E0,0E0,0E0,0E0,3.092041E-1,5.0359917E-1,0E0,5.057373E-1,1.3355534E0,2.1303596E0,7.1650524E0,0E0,0E0,3.4491792E0,2.8269978E0,0E0,2.2332072E0,1.5923795E0,0E0,0E0,0E0,0E0,0E0,0E0,0E0,0E0,0E0,0E0,0E0,0E0,0E0,0E0,0E0,0E0,0E0,0E0,0E0],"parents":[2147483647,0,0,1,1,2,2,3,3,4,4,5,5,6,6,7,7,8,8,9,9,10,10,11,11,12,12,16,16,17,17,18,18,19,19,21,21,22,22,26,26,27,27,29,29,30,30,31,31,32,32,35,35,36,36,38,38,39,39],"right_children":[2,4,6,8,10,12,14,16,18,20,22,24,26,-1,-1,-1,28,30,32,34,-1,36,38,-1,-1,-1,40,42,-1,44,46,48,50,-1,-1,52,54,-1,56,58,-1,-1,-1,-1,-1,-1,-1,-1,-1,-1,-1,-1,-1,-1,-1,-1,-1,-1,-1],"split_conditions":[7.529161E-1,3.888889E-1,1.3461539E-1,5E-1,4.2375535E-1,4.2587334E-1,5E-1,1.25E-1,6.3115215E-1,4.25E-1,6.025277E-1,5.090909E-1,2.0552234E-1,4.908032E-2,-3.0159247E-1,3.2062453E-1,6.525E-1,8.3653843E-1,6.888668E-1,1.7532468E-1,-6.917935E-2,5.6145096E-1,6.5021336E-1,1.512206E-1,-2.3781255E-1,-2.4491282E-1,5.120704E-1,7.844362E-1,3.0928096E-1,5E-1,1.6666667E-1,7.575E-1,1.0576923E-1,9.189209E-2,3.405429E-1,4.376601E-1,6.1111116E-1,-3.4671268E-1,1.7500001E-1,7.8819346E-1,3.2477987E-1,-3.1445852E-1,-9.219676E-2,-3.0295953E-1,-1.5439245E-1,-2.1987195E-1,1.1502855E-1,-2.518996E-1,4.760292E-2,1.6400984E-1,-3.066329E-1,3.924928E-1,3.0479586E-2,-2.901829E-1,1.3678712E-1,2.4500959E-1,-1.5375412E-1,-6.064586E-2,2.596008E-1],"split_indices":[2,14,1,69,2,5,69,12,2,12,5,3,8,0,0,0,11,1,5,0,0,2,2,0,0,0,5,5,0,40,14,11,1,0,0,8,14,0,12,2,0,0,0,0,0,0,0,0,0,0,0,0,0,0,0,0,0,0,0],"split_type":[0,0,0,0,0,0,0,0,0,0,0,0,0,0,0,0,0,0,0,0,0,0,0,0,0,0,0,0,0,0,0,0,0,0,0,0,0,0,0,0,0,0,0,0,0,0,0,0,0,0,0,0,0,0,0,0,0,0,0],"sum_hessian":[4.3987314E2,4.0948068E2,3.0392454E1,3.7036578E2,3.9114887E1,2.3162691E1,7.2297626E0,3.5159595E1,3.352062E2,1.0739897E1,2.8374989E1,4.238344E0,1.8924347E1,1.8842558E0,5.3455067E0,6.7660556E0,2.8393538E1,2.7147473E2,6.3731472E1,9.735559E0,1.0043374E0,1.6759035E1,1.1615953E1,1.2757488E0,2.9625955E0,1.3767809E0,1.7547567E1,2.29307E1,5.4628367E0,2.6886417E2,2.610569E0,5.030985E1,1.3421625E1,1.0611702E0,8.674389E0,8.977455E0,7.7815804E0,8.4642935E0,3.1516602E0,4.897876E0,1.2649691E1,2.0902796E1,2.0279057E0,2.6357693E2,5.2872267E0,1.6001891E0,1.0103799E0,4.837999E1,1.9298569E0,1.050722E1,2.9144053E0,3.3188198E0,5.658635E0,6.700329E0,1.0812516E0,1.6735682E0,1.4780918E0,1.5933995E0,3.3044763E0],"tree_param":{"num_deleted":"0","num_feature":"73","num_nodes":"59","size_leaf_vector":"0"}},{"base_weights":[-6.202886E-1,-7.2432554E-1,-2.5299575E-2,-8.1388307E-1,2.6615692E-2,-4.0529984E-1,3.9863598E-1,-2.5493518E-1,-8.661886E-1,5.3450215E-1,-5.2991325E-1,-5.436131E-1,7.4042064E-1,6.878911E-1,-4.8815554E-1,9.2983425E-1,-5.625256E-1,-9.0667593E-1,-6.053505E-1,1.1837994E0,3.5196137E-2,3.8814735E-1,-7.0903146E-1,-7.8971666E-1,-9.130092E-2,2.088047E-1,8.7472564E-1,-7.960089E-2,1.0135678E0,1.5836848E-1,-7.5684744E-1,-9.5592713E-1,9.05681E-1,-9.14496E-1,-2.1229579E-1,-7.5449E-1,3.2063374E-1,6.3545716E-1,-5.6433535E-1,9.2483145E-1,-3.7628296E-1,1.3559082E-1,-8.84344E-1,2.9672073E-2,-9.000821E-1,-6.856274E-1,4.7372442E-1,-5.7534724E-1,6.041272E-1,2.7292013E-1,1.0517223E0,-8.9215696E-1,-9.304747E-2,-1.8485902E-1,-9.953657E-1,-9.2416376E-1,-3.722397E-1,6.0129476E-1,-8.1921965E-1,-8.0056083E-1,1.4004697E-1,-2.3587961E-1,7.539619E-1,8.354406E-1,-1.2057823E-1,3.8970548E-1,-9.123184E-1,3.406971E-1,-1.3453673E-1,-9.884639E-1,-1.853825E-1,2.808002E-1,-2.3400015E-1,-1.3204719E-2,-9.839403E-1,-9.35907E-1,7.593738E-2,8.5815847E-1,-6.5549123E-1,-8.067402E-1,1.2139431E-1,4.0533864E-1,1.1151017E0],"categories":[],"categories_nodes":[],"categories_segments":[],"categories_sizes":[],"default_left":[1,1,1,1,1,1,1,1,1,1,1,1,1,1,1,0,1,1,1,0,1,1,1,1,1,0,0,1,1,0,1,1,0,1,1,1,1,1,1,0,0,1,1,1,1,1,1,1,0,0,1,0,0,0,0,0,0,0,0,0,0,0,0,0,0,0,0,0,0,0,0,0,0,0,0,0,0,0,0,0,0,0,0],"id":5,"left_children":[1,3,5,7,9,11,13,15,17,19,21,23,25,27,29,-1,31,33,35,-1,37,39,41,43,45,-1,-1,47,49,-1,51,53,-1,55,57,59,61,63,65,-1,-1,67,69,71,73,75,77,79,-1,-1,81,-1,-1,-1,-1,-1,-1,-1,-1,-1,-1,-1,-1,-1,-1,-1,-1,-1,-1,-1,-1,-1,-1,-1,-1,-1,-1,-1,-1,-1,-1,-1,-1],"loss_changes":[2.2593277E1,2.0929443E1,9.086651E0,7.900711E0,9.920039E0,5.1107426E0,7.1823997E0,9.70213E0,2.1293488E0,5.898903E0,3.0329146E0,2.9431248E0,7.608473E-2,5.215149E0,1.3618991E0,0E0,1.2775478E1,9.8703E-1,5.36327E0,0E0,4.4572344E0,1.7363164E0,2.250105E0,1.6012793E0,3.9097478E0,0E0,0E0,2.736185E0,1.2257004E-1,0E0,3.8618064E-1,3.2532024E-1,0E0,7.8201294E-1,2.3318222E0,1.4407139E0,1.5876306E0,1.0323067E0,2.423039E0,0E0,0E0,2.3087929E-1,6.934347E-1,2.6666567E-1,1.1306038E0,1.140641E0,3.1949804E0,8.391051E-1,0E0,0E0,9.8368645E-2,0E0,0E0,0E0,0E0,0E0,0E0,0E0,0E0,0E0,0E0,0E0,0E0,0E0,0E0,0E0,0E0,0E0,0E0,0E0,0E0,0E0,0E0,0E0,0E0,0E0,0E0,0E0,0E0,0E0,0E0,0E0,0E0],"parents":[2147483647,0,0,1,1,2,2,3,3,4,4,5,5,6,6,7,7,8,8,9,9,10,10,11,11,12,12,13,13,14,14,16,16,17,17,18,18,20,20,21,21,22,22,23,23,24,24,27,27,28,28,30,30,31,31,33,33,34,34,35,35,36,36,37,37,38,38,41,41,42,42,43,43,44,44,45,45,46,46,47,47,50,50],"right_children":[2,4,6,8,10,12,14,16,18,20,22,24,26,28,30,-1,32,34,36,-1,38,40,42,44,46,-1,-1,48,50,-1,52,54,-1,56,58,60,62,64,66,-1,-1,68,70,72,74,76,78,80,-1,-1,82,-1,-1,-1,-1,-1,-1,-1,-1,-1,-1,-1,-1,-1,-1,-1,-1,-1,-1,-1,-1,-1,-1,-1,-1,-1,-1,-1,-1,-1,-1,-1,-1],"split_conditions":[6.945946E-1,3.888889E-1,5.82931E-1,5E-1,5.0042677E-1,8.5960174E-1,1.0576923E-1,1.25E-1,6.283072E-1,5.418915E-1,4.16927E-1,4.7267294E-1,8.9388335E-1,3.580985E-1,5E-1,2.7895027E-1,6.525E-1,9.257313E-1,7.602954E-1,3.5513982E-1,4.2375535E-1,5E-1,5E-1,4.5588237E-1,7.571835E-1,6.264141E-2,2.624177E-1,7.5860596E-1,1.5151516E-1,4.7510546E-2,7.058824E-1,1.8104184E-1,2.7170432E-1,5E-1,4.891775E-1,7.189012E-1,5.1224023E-1,3.25E-1,3.2095075E-1,2.7744946E-1,-1.12884894E-1,6.69697E-1,6.161972E-1,6.090909E-1,7.5E-2,5.625E-1,2.1153846E-1,2.777778E-1,1.8123817E-1,8.187604E-2,4.074865E-1,-2.676471E-1,-2.7914243E-2,-5.5457707E-2,-2.986097E-1,-2.7724913E-1,-1.1167192E-1,1.8038844E-1,-2.4576591E-1,-2.4016826E-1,4.2014092E-2,-7.0763886E-2,2.2618859E-1,2.506322E-1,-3.617347E-2,1.1691165E-1,-2.7369553E-1,1.02209136E-1,-4.036102E-2,-2.965392E-1,-5.561475E-2,8.4240064E-2,-7.020005E-2,-3.961416E-3,-2.951821E-1,-2.8077212E-1,2.2781216E-2,2.5744754E-1,-1.9664738E-1,-2.4202208E-1,3.6418293E-2,1.216016E-1,3.3453053E-1],"split_indices":[2,14,5,69,2,2,1,12,2,5,5,8,2,8,69,0,11,5,5,0,2,67,69,6,2,0,0,2,0,0,6,8,0,58,0,8,8,12,8,0,0,3,9,3,12,11,1,14,0,0,8,0,0,0,0,0,0,0,0,0,0,0,0,0,0,0,0,0,0,0,0,0,0,0,0,0,0,0,0,0,0,0,0],"split_type":[0,0,0,0,0,0,0,0,0,0,0,0,0,0,0,0,0,0,0,0,0,0,0,0,0,0,0,0,0,0,0,0,0,0,0,0,0,0,0,0,0,0,0,0,0,0,0,0,0,0,0,0,0,0,0,0,0,0,0,0,0,0,0,0,0,0,0,0,0,0,0,0,0,0,0,0,0,0,0,0,0,0,0],"sum_hessian":[3.6428757E2,3.0988516E2,5.4402393E1,2.7679114E2,3.3094036E1,2.871093E1,2.5691465E1,2.4187918E1,2.5260321E2,1.732389E1,1.5770145E1,2.6087172E1,2.6237576E0,1.9541634E1,6.1498303E0,4.5684204E0,1.9619497E1,2.1651906E2,3.608415E1,6.934883E0,1.0389008E1,2.3840156E0,1.338613E1,1.6411629E1,9.675543E0,1.0444084E0,1.579349E0,6.0469446E0,1.349469E1,1.9260297E0,4.2238007E0,1.5748617E1,3.87088E0,2.1379433E2,2.7247398E0,3.1238121E1,4.846027E0,5.1614017E0,5.2276053E0,1.2773763E0,1.1066393E0,2.339834E0,1.1046296E1,2.0349145E0,1.4376714E1,4.611478E0,5.0640655E0,3.5972352E0,2.4497097E0,1.0605491E0,1.2434141E1,3.22284E0,1.0009608E0,1.0430511E0,1.4705565E1,2.0935745E2,4.4368715E0,1.1681252E0,1.5566145E0,2.9807995E1,1.4301267E0,2.3209457E0,2.525081E0,3.9986632E0,1.1627387E0,1.3651023E0,3.862503E0,1.1814902E0,1.1583438E0,9.253649E0,1.7926472E0,1.0089784E0,1.0259361E0,1.3419391E0,1.3034775E1,3.2985277E0,1.3129499E0,3.9569786E0,1.107087E0,2.5818934E0,1.0153416E0,1.7707124E0,1.0663428E1],"tree_param":{"num_deleted":"0","num_feature":"73","num_nodes":"83","size_leaf_vector":"0"}},{"base_weights":[-5.4433894E-1,-6.432621E-1,-1.8962309E-2,-7.2949135E-1,3.112983E-2,1.6833293E-1,-6.579768E-1,-2.2278947E-1,-7.7586085E-1,4.686789E-1,-4.4415992E-1,-3.1715715E-1,5.645487E-1,-9.058169E-4,-8.822418E-1,8.6482203E-1,-5.12543E-1,-8.214039E-1,-5.0433505E-1,8.835939E-1,-2.1489157E-1,-6.6583246E-1,2.5082514E-1,-5.693938E-1,7.4233496E-1,2.2187321E-3,9.444455E-1,-4.7293347E-1,4.5360735E-1,-9.796274E-1,-9.043177E-2,-8.849752E-1,8.3851135E-1,-8.3271563E-1,-1.6479377E-1,-6.4489555E-1,2.5784704E-1,9.890716E-1,7.209904E-2,7.321853E-1,-6.5770954E-1,9.707494E-2,-9.5057994E-1,7.100632E-1,-4.437551E-1,-8.7188995E-1,2.3188855E-1,-5.2073705E-1,3.8283613E-1,1.0165598E-1,1.0071378E0,-1.5930572E-1,-9.3069583E-1,-8.4117055E-1,-5.603356E-2,-7.5133216E-1,8.0779165E-1,-7.2808987E-1,8.747887E-3,8.773821E-1,-1.4080814E-1,-2.072893E-1,-9.41905E-1,5.113748E-1,-5.787108E-1,-9.133823E-2,-1.0557079E0,-1.1523357E-1,-9.4006026E-1,-3.5745865E-1,6.4327705E-1,2.8070575E-1,-8.2880753E-1,-6.766954E-1,7.2357726E-1,5.12303E-1,1.135171E0],"categories":[],"categories_nodes":[],"categories_segments":[],"categories_sizes":[],"default_left":[1,1,1,1,1,1,1,1,1,1,1,1,1,1,1,0,1,1,1,1,1,1,1,1,0,1,1,0,0,0,0,1,0,1,1,1,1,0,0,0,1,1,1,0,0,1,1,1,1,0,1,0,0,0,0,0,0,0,0,0,0,0,0,0,0,0,0,0,0,0,0,0,0,0,0,0,0],"id":6,"left_children":[1,3,5,7,9,11,13,15,17,19,21,23,25,27,29,-1,31,33,35,37,39,41,43,45,-1,47,49,-1,-1,-1,-1,51,-1,53,55,57,59,-1,-1,-1,61,63,65,-1,-1,67,69,71,73,-1,75,-1,-1,-1,-1,-1,-1,-1,-1,-1,-1,-1,-1,-1,-1,-1,-1,-1,-1,-1,-1,-1,-1,-1,-1,-1,-1],"loss_changes":[1.5768089E1,1.4879982E1,5.992301E0,5.150421E0,6.4310484E0,7.6424966E0,1.670608E0,6.8714952E0,2.147606E0,4.746768E0,2.45577E0,5.2533145E0,4.638696E0,1.0485059E0,5.634031E-1,0E0,9.162642E0,1.1686554E0,3.6317854E0,8.012123E-1,3.3639863E0,2.5986047E0,1.6927739E0,3.878162E0,0E0,2.14228E0,5.825176E-1,0E0,0E0,0E0,0E0,3.0312634E-1,0E0,1.0862656E0,3.0167468E0,1.507062E0,1.5439402E0,0E0,0E0,0E0,4.7168088E-1,1.4279265E0,6.708579E-1,0E0,0E0,4.7040176E-1,1.429155E0,1.3524569E0,2.7372904E0,0E0,1.7572498E-1,0E0,0E0,0E0,0E0,0E0,0E0,0E0,0E0,0E0,0E0,0E0,0E0,0E0,0E0,0E0,0E0,0E0,0E0,0E0,0E0,0E0,0E0,0E0,0E0,0E0,0E0],"parents":[2147483647,0,0,1,1,2,2,3,3,4,4,5,5,6,6,7,7,8,8,9,9,10,10,11,11,12,12,13,13,14,14,16,16,17,17,18,18,19,19,20,20,21,21,22,22,23,23,25,25,26,26,31,31,33,33,34,34,35,35,36,36,40,40,41,41,42,42,45,45,46,46,47,47,48,48,50,50],"right_children":[2,4,6,8,10,12,14,16,18,20,22,24,26,28,30,-1,32,34,36,38,40,42,44,46,-1,48,50,-1,-1,-1,-1,52,-1,54,56,58,60,-1,-1,-1,62,64,66,-1,-1,68,70,72,74,-1,76,-1,-1,-1,-1,-1,-1,-1,-1,-1,-1,-1,-1,-1,-1,-1,-1,-1,-1,-1,-1,-1,-1,-1,-1,-1,-1],"split_conditions":[6.945946E-1,3.888889E-1,1.0576923E-1,5E-1,5.0042677E-1,4.0634787E-1,5E-1,1.25E-1,6.283072E-1,6.11758E-1,6.0915494E-1,8.119488E-1,5.2641296E-1,5.5555556E-2,5.6926405E-1,2.5944662E-1,6.525E-1,5E-1,7.602954E-1,6.558497E-1,3.8278806E-1,3.556338E-1,6.1176467E-1,6.5379155E-1,2.2270049E-1,7.571835E-1,1.9047618E-1,-1.4188005E-1,1.3608222E-1,-2.938882E-1,-2.7129533E-2,1.8104184E-1,2.5155342E-1,5E-1,6.294118E-1,6.725E-1,6.212121E-1,2.967215E-1,2.1629712E-2,2.196556E-1,1.7500001E-1,5.55E-1,4.1195685E-1,2.1301897E-1,-1.3312653E-1,2.2510822E-1,3.316254E-1,1.25E-1,3.5685885E-1,3.0496797E-2,5E-1,-4.779172E-2,-2.7920875E-1,-2.5235116E-1,-1.6810069E-2,-2.2539966E-1,2.4233751E-1,-2.1842697E-1,2.6243662E-3,2.6321465E-1,-4.224244E-2,-6.218679E-2,-2.8257152E-1,1.5341243E-1,-1.7361325E-1,-2.7401472E-2,-3.1671238E-1,-3.457007E-2,-2.820181E-1,-1.072376E-1,1.9298312E-1,8.421173E-2,-2.4864227E-1,-2.0300864E-1,2.1707319E-1,1.536909E-1,3.4055132E-1],"split_indices":[2,14,1,69,2,8,69,12,2,5,9,2,5,14,0,0,11,30,5,8,2,9,6,5,0,2,0,0,0,0,0,8,0,19,6,11,3,0,0,0,12,11,5,0,0,0,8,12,5,0,6,0,0,0,0,0,0,0,0,0,0,0,0,0,0,0,0,0,0,0,0,0,0,0,0,0,0],"split_type":[0,0,0,0,0,0,0,0,0,0,0,0,0,0,0,0,0,0,0,0,0,0,0,0,0,0,0,0,0,0,0,0,0,0,0,0,0,0,0,0,0,0,0,0,0,0,0,0,0,0,0,0,0,0,0,0,0,0,0,0,0,0,0,0,0,0,0,0,0,0,0,0,0,0,0,0,0],"sum_hessian":[3.0263104E2,2.5448895E2,4.8142097E1,2.2556589E2,2.8923075E1,3.7799603E1,1.0342495E1,1.939808E1,2.061678E2,1.5066682E1,1.3856394E1,1.7075827E1,2.0723776E1,2.887242E0,7.455253E0,3.6632223E0,1.57348585E1,1.7482005E2,3.1347748E1,9.193672E0,5.8730097E0,1.0537347E1,3.3190467E0,1.4165888E1,2.9099393E0,8.761173E0,1.1962604E1,1.3964514E0,1.4907906E0,6.4275246E0,1.0277286E0,1.2605105E1,3.1297538E0,1.7159569E2,3.224367E0,2.6596704E1,4.7510433E0,7.9424853E0,1.2511867E0,1.6629367E0,4.2100735E0,3.0431354E0,7.4942117E0,1.9845945E0,1.3344524E0,1.0219686E1,3.9462025E0,3.5354474E0,5.225726E0,1.0097511E0,1.0952852E1,1.0128986E0,1.1592207E1,1.696657E2,1.9299947E0,2.1532772E0,1.0710899E0,2.349271E1,3.1039953E0,1.3900164E0,3.3610268E0,2.2977571E0,1.912316E0,2.03738E0,1.0057554E0,1.0206844E0,6.473527E0,1.066992E0,9.152693E0,1.676119E0,2.2700834E0,1.0063256E0,2.5291219E0,1.0317029E0,4.194023E0,3.2794523E0,7.6734E0],"tree_param":{"num_deleted":"0","num_feature":"73","num_nodes":"77","size_leaf_vector":"0"}},{"base_weights":[-4.7445768E-1,-5.65048E-1,-1.6671218E-2,-6.4565533E-1,1.9188816E-2,-3.1509888E-1,3.2191393E-1,-1.9095528E-1,-6.8609846E-1,8.990282E-1,-1.7853008E-1,-4.328567E-1,6.062323E-1,5.3761375E-1,-3.201229E-1,8.0485624E-1,-4.6426067E-1,-7.7062947E-1,-5.0112474E-1,1.3468657E-1,-5.9319466E-1,-5.610822E-1,2.9874942E-1,-4.915202E-2,8.249444E-1,3.059412E-1,-5.9308743E-1,-8.1697184E-1,7.7700055E-1,-7.8440267E-1,2.796325E-1,-5.877065E-1,3.9977986E-1,5.2907395E-1,-5.1030684E-1,-8.001169E-2,-1.0023564E0,-1.5745936E-2,-7.0097333E-1,-3.7194562E-1,8.517605E-1,-4.2802665E-1,4.9295428E-1,3.996502E-1,9.731029E-1,1.6949935E-2,-7.793784E-1,-8.8772625E-1,-1.0438903E-1,-7.977906E-1,7.223617E-2,-6.329459E-1,6.3128656E-1,1.0715928E0,-5.4111177E-1,1.1190553E0,1.4650898E-1,2.5860998E-1,-7.5187606E-1,7.8332597E-1,-4.48986E-1,4.95652E-1,-5.2485704E-1,-9.4380695E-1,-1.4839248E-1,-8.821172E-1,3.2362707E-2,-4.3414748E-1,8.890047E-1],"categories":[],"categories_nodes":[],"categories_segments":[],"categories_sizes":[],"default_left":[1,1,1,1,1,1,1,1,1,0,1,1,0,1,1,0,1,1,1,1,1,1,1,1,1,0,1,1,0,1,0,1,1,1,1,1,0,1,1,0,0,1,0,1,0,0,0,0,0,0,0,0,0,0,0,0,0,0,0,0,0,0,0,0,0,0,0,0,0],"id":7,"left_children":[1,3,5,7,9,11,13,15,17,-1,19,21,-1,23,25,-1,27,29,31,33,35,37,39,41,43,-1,45,47,-1,49,-1,51,53,55,57,59,-1,61,63,-1,-1,65,-1,67,-1,-1,-1,-1,-1,-1,-1,-1,-1,-1,-1,-1,-1,-1,-1,-1,-1,-1,-1,-1,-1,-1,-1,-1,-1],"loss_changes":[1.0545174E1,1.0016586E1,4.453764E0,3.3023834E0,4.809931E0,2.801173E0,3.0351782E0,4.901223E0,2.2886581E0,0E0,3.0225987E0,2.1687493E0,0E0,2.71248E0,1.1770349E0,0E0,6.6271825E0,1.8908768E0,4.6432896E0,3.760664E0,2.0058343E0,1.4001236E0,1.7387334E0,1.4748327E0,2.849908E-1,0E0,5.129328E-1,4.6929836E-1,0E0,1.368721E0,0E0,3.265276E0,4.088275E0,1.8688715E0,1.2561569E0,2.1017747E0,0E0,1.5097039E0,1.8322687E0,0E0,0E0,8.9764845E-1,0E0,2.2057643E0,0E0,0E0,0E0,0E0,0E0,0E0,0E0,0E0,0E0,0E0,0E0,0E0,0E0,0E0,0E0,0E0,0E0,0E0,0E0,0E0,0E0,0E0,0E0,0E0,0E0],"parents":[2147483647,0,0,1,1,2,2,3,3,4,4,5,5,6,6,7,7,8,8,10,10,11,11,13,13,14,14,16,16,17,17,18,18,19,19,20,20,21,21,22,22,23,23,24,24,26,26,27,27,29,29,31,31,32,32,33,33,34,34,35,35,37,37,38,38,41,41,43,43],"right_children":[2,4,6,8,10,12,14,16,18,-1,20,22,-1,24,26,-1,28,30,32,34,36,38,40,42,44,-1,46,48,-1,50,-1,52,54,56,58,60,-1,62,64,-1,-1,66,-1,68,-1,-1,-1,-1,-1,-1,-1,-1,-1,-1,-1,-1,-1,-1,-1,-1,-1,-1,-1,-1,-1,-1,-1,-1,-1],"split_conditions":[6.945946E-1,3.888889E-1,5.82931E-1,5E-1,3.8335705E-1,8.5960174E-1,1.0576923E-1,1.25E-1,5.611664E-1,2.6970845E-1,6.030957E-1,6.8E-1,1.8186969E-1,3.580985E-1,3.7676054E-1,2.4145688E-1,6.525E-1,8.3653843E-1,7.7878785E-1,5.6145096E-1,1.7500001E-1,1.25E-1,3.545403E-1,7.5860596E-1,7.213371E-1,9.178236E-2,5E-1,6.2631583E-1,2.3310018E-1,5E-1,8.388975E-2,5E-1,5.075E-1,3.9026475E-1,3.9037204E-1,5E-1,-3.0070692E-1,7.43101E-1,7.830726E-1,-1.1158369E-1,2.5552815E-1,4.675E-1,1.4788629E-1,5.048392E-1,2.9193088E-1,5.0849807E-3,-2.3381354E-1,-2.6631787E-1,-3.131671E-2,-2.3933719E-1,2.1670852E-2,-1.8988378E-1,1.8938598E-1,3.2147786E-1,-1.6233353E-1,3.357166E-1,4.3952696E-2,7.7583E-2,-2.2556283E-1,2.349978E-1,-1.346958E-1,1.486956E-1,-1.5745711E-1,-2.831421E-1,-4.4517748E-2,-2.6463518E-1,9.708812E-3,-1.3024426E-1,2.6670143E-1],"split_indices":[2,14,5,69,2,2,1,12,2,0,5,11,0,8,9,0,11,1,3,2,12,12,8,2,2,0,69,2,0,22,0,46,11,8,5,69,0,2,2,0,0,11,0,8,0,0,0,0,0,0,0,0,0,0,0,0,0,0,0,0,0,0,0,0,0,0,0,0,0],"split_type":[0,0,0,0,0,0,0,0,0,0,0,0,0,0,0,0,0,0,0,0,0,0,0,0,0,0,0,0,0,0,0,0,0,0,0,0,0,0,0,0,0,0,0,0,0,0,0,0,0,0,0,0,0,0,0,0,0,0,0,0,0,0,0,0,0,0,0,0,0],"sum_hessian":[2.5350536E2,2.114314E2,4.2073956E1,1.8570454E2,2.5726852E1,2.2400024E1,1.9673933E1,1.5635616E1,1.7006892E2,4.069734E0,2.165712E1,2.0331575E1,2.06845E0,1.4848161E1,4.825771E0,2.948308E0,1.2687309E1,1.1455318E2,5.5515747E1,1.272243E1,8.934689E0,1.7497879E1,2.8336964E0,5.153333E0,9.694828E0,1.4285281E0,3.397243E0,1.014607E1,2.5412397E0,1.1332023E2,1.2329514E0,5.096535E1,4.550396E0,8.006501E0,4.715929E0,4.49388E0,4.4408092E0,3.799375E0,1.36985035E1,1.4285545E0,1.4051417E0,3.1572142E0,1.996119E0,3.4600594E0,6.2347684E0,1.0073946E0,2.3898485E0,9.006046E0,1.1400234E0,1.11644104E2,1.6761224E0,4.9605164E1,1.3601867E0,2.5737684E0,1.9766275E0,2.3921907E0,5.6143103E0,1.1105373E0,3.6053917E0,1.0093018E0,3.4845781E0,1.9086193E0,1.8907559E0,9.024609E0,4.673895E0,1.1283133E0,2.0289009E0,1.321392E0,2.1386673E0],"tree_param":{"num_deleted":"0","num_feature":"73","num_nodes":"69","size_leaf_vector":"0"}},{"base_weights":[-4.009659E-1,-5.154299E-1,-1.1284076E-1,-5.993689E-1,5.3356323E-2,5.4922465E-2,-6.4845103E-1,-6.772726E-1,-3.244081E-1,6.529649E-1,-2.0409107E-1,-1.4555225E-1,6.622137E-1,4.377266E-1,-7.594474E-1,-6.918377E-1,3.2708764E-1,5.4754585E-1,-5.28474E-1,8.6676306E-1,3.738263E-2,1.520769E-1,-8.5062283E-1,-4.1445383E-1,2.7913395E-1,-7.208696E-2,8.4462947E-1,-6.244461E-2,-9.370179E-1,-8.7896717E-1,-5.425306E-1,1.4019805E0,-4.079476E-1,-6.412675E-1,6.0431284E-1,4.3680784E-1,-3.3978155E-1,4.2179725E-1,-6.987038E-1,-3.7956737E-2,6.9515747E-1,4.909162E-1,-5.7829905E-1,1.0389981E0,3.0802531E-2,3.1701168E-1,-5.2244043E-1,-7.624347E-2,-1.016455E0,-2.7305007E-1,-9.245472E-1,3.2801074E-1,-5.9060353E-1,1.9069602E-1,2.099243E0,1.3580658E-1,-6.4956564E-1,-7.068719E-1,3.8618958E-1,7.699427E-1,-2.6221803E-1,3.4935325E-1,-6.4723027E-1,-5.7639146E-1,8.024117E-1,-8.128354E-1,5.502105E-1,-5.468378E-1,3.4244266E-1,4.6567734E-2,8.281657E-1,1.1290656E0,2.9957518E-1],"categories":[],"categories_nodes":[],"categories_segments":[],"categories_sizes":[],"default_left":[1,1,1,1,1,1,1,1,1,1,1,1,1,0,1,1,0,1,1,0,0,1,0,1,1,1,1,1,1,1,1,1,1,1,0,1,1,1,1,1,1,0,0,1,0,0,0,0,0,0,0,0,0,0,0,0,0,0,0,0,0,0,0,0,0,0,0,0,0,0,0,0,0],"id":8,"left_children":[1,3,5,7,9,11,13,15,17,19,21,23,25,-1,27,29,-1,31,33,-1,-1,35,-1,37,39,41,43,45,47,49,51,53,55,57,-1,59,61,63,65,67,69,-1,-1,71,-1,-1,-1,-1,-1,-1,-1,-1,-1,-1,-1,-1,-1,-1,-1,-1,-1,-1,-1,-1,-1,-1,-1,-1,-1,-1,-1,-1,-1],"loss_changes":[7.1261406E0,7.461918E0,5.7159395E0,2.6868668E0,3.3643265E0,6.0692935E0,2.1596513E0,1.7595863E0,5.9613724E0,8.2642007E-1,3.6768358E0,4.421443E0,1.7159691E0,0E0,1.6886292E0,2.4187431E0,0E0,5.908386E0,3.753034E0,0E0,0E0,1.6583583E0,0E0,5.8780904E0,2.033542E0,1.2472192E0,1.5460353E0,8.5291016E-1,6.8687916E-1,9.732437E-1,2.7154446E0,2.704484E0,5.9539455E-1,1.9203911E0,0E0,1.8939618E0,1.1828227E0,2.9632525E0,2.9996405E0,2.0422225E0,5.336287E-1,0E0,0E0,1.9602394E-1,0E0,0E0,0E0,0E0,0E0,0E0,0E0,0E0,0E0,0E0,0E0,0E0,0E0,0E0,0E0,0E0,0E0,0E0,0E0,0E0,0E0,0E0,0E0,0E0,0E0,0E0,0E0,0E0,0E0],"parents":[2147483647,0,0,1,1,2,2,3,3,4,4,5,5,6,6,7,7,8,8,9,9,10,10,11,11,12,12,14,14,15,15,17,17,18,18,21,21,23,23,24,24,25,25,26,26,27,27,28,28,29,29,30,30,31,31,32,32,33,33,35,35,36,36,37,37,38,38,39,39,40,40,43,43],"right_children":[2,4,6,8,10,12,14,16,18,20,22,24,26,-1,28,30,-1,32,34,-1,-1,36,-1,38,40,42,44,46,48,50,52,54,56,58,-1,60,62,64,66,68,70,-1,-1,72,-1,-1,-1,-1,-1,-1,-1,-1,-1,-1,-1,-1,-1,-1,-1,-1,-1,-1,-1,-1,-1,-1,-1,-1,-1,-1,-1,-1,-1],"split_conditions":[6.391181E-1,3.888889E-1,5.7692308E-2,5.546541E-1,4.2375535E-1,6.8446463E-1,6.4381224E-1,5E-1,5.121212E-1,6.767964E-1,6.025277E-1,7.42532E-1,4.075E-1,1.3131799E-1,5E-1,5.617647E-1,9.81263E-2,3.9610392E-1,6.187767E-1,2.6002893E-1,1.1214789E-2,5.65E-1,-2.5518686E-1,1.25E-1,4.649872E-1,5.8235294E-1,5.8441556E-1,6.0294116E-1,3.5500002E-1,5E-1,5.676471E-1,4.8591548E-1,5.031241E-1,7.45E-1,1.8129386E-1,5E-1,5.852941E-1,3.4500426E-1,7.425E-1,4.7813123E-1,1.25E-1,1.4727487E-1,-1.7348972E-1,3.5000002E-1,9.24076E-3,9.510351E-2,-1.5673214E-1,-2.287304E-2,-3.0493653E-1,-8.191502E-2,-2.7736416E-1,9.840322E-2,-1.7718107E-1,5.7208806E-2,6.297729E-1,4.0741973E-2,-1.948697E-1,-2.1206158E-1,1.1585688E-1,2.3098283E-1,-7.866541E-2,1.0480598E-1,-1.9416909E-1,-1.7291744E-1,2.407235E-1,-2.4385063E-1,1.6506314E-1,-1.6405135E-1,1.027328E-1,1.3970321E-2,2.4844973E-1,3.387197E-1,8.9872554E-2],"split_indices":[2,14,1,8,2,5,2,19,3,5,5,2,11,0,69,6,0,0,2,0,0,11,0,12,8,6,0,6,11,69,6,9,5,11,0,67,6,8,11,5,12,0,0,12,0,0,0,0,0,0,0,0,0,0,0,0,0,0,0,0,0,0,0,0,0,0,0,0,0,0,0,0,0],"split_type":[0,0,0,0,0,0,0,0,0,0,0,0,0,0,0,0,0,0,0,0,0,0,0,0,0,0,0,0,0,0,0,0,0,0,0,0,0,0,0,0,0,0,0,0,0,0,0,0,0,0,0,0,0,0,0,0,0,0,0,0,0,0,0,0,0,0,0,0,0,0,0,0,0],"sum_hessian":[2.1683856E2,1.546225E2,6.2216076E1,1.3469154E2,1.993095E1,4.806018E1,1.4155895E1,1.03814865E2,3.0876675E1,5.52549E0,1.4405461E1,3.670403E1,1.1356152E1,1.0395502E0,1.3116345E1,1.02637596E2,1.1772722E0,5.536511E0,2.5340164E1,3.7982724E0,1.7272174E0,9.781635E0,4.623826E0,2.2488758E1,1.4215273E1,2.3800924E0,8.976059E0,2.937537E0,1.0178808E1,4.338072E1,5.9256874E1,2.6761353E0,2.8603754E0,2.3440098E1,1.900067E0,6.266156E0,3.5154788E0,5.5822177E0,1.690654E1,8.582502E0,5.6327705E0,1.1411428E0,1.2389494E0,7.0222354E0,1.9538237E0,1.7800168E0,1.15752E0,1.0255731E0,9.153235E0,3.524074E0,3.9856644E1,2.7962916E0,5.6460583E1,1.4429444E0,1.2331909E0,1.014716E0,1.8456595E0,2.2326536E1,1.1135604E0,4.175017E0,2.091139E0,1.0424864E0,2.4729924E0,1.3989636E0,4.1832542E0,1.5810838E1,1.0957018E0,3.484098E0,5.0984044E0,1.1883104E0,4.44446E0,5.790012E0,1.2322236E0],"tree_param":{"num_deleted":"0","num_feature":"73","num_nodes":"73","size_leaf_vector":"0"}},{"base_weights":[-3.3229828E-1,1.2375185E-1,-3.943124E-1,1.0187573E0,-1.757707E-1,-4.2362273E-1,4.4051623E-1,-5.196412E-1,9.762989E-1,-4.499394E-1,3.7736642E-1,-1.4444888E-2,6.2868434E-1,-2.6826894E-1,-9.685224E-1,-4.9914488E-1,-7.606014E-2,-4.04136E-1,9.923583E-1,-7.44548E-1,1.3419802E-1,-5.7585007E-1,-2.5475448E-1,3.340198E-1,-5.020415E-1,-1.7647482E-2,-5.8621764E-1,-3.1397793E-2,1.6948271E0,7.904779E-1,-1.689723E-1,-5.972733E-1,2.582844E-1,-3.459245E-2,-7.870761E-1,9.5348275E-1,-9.842223E-2,-6.820617E-1,2.5421709E-2],"categories":[],"categories_nodes":[],"categories_segments":[],"categories_sizes":[],"default_left":[1,1,1,0,1,1,1,1,0,1,1,0,0,1,0,1,1,1,1,0,1,1,1,1,1,0,0,0,0,0,0,0,0,0,0,0,0,0,0],"id":9,"left_children":[1,3,5,-1,7,9,11,13,-1,15,17,-1,-1,19,-1,21,23,25,27,-1,29,31,33,35,37,-1,-1,-1,-1,-1,-1,-1,-1,-1,-1,-1,-1,-1,-1],"loss_changes":[5.4565315E0,6.518952E0,4.3111477E0,0E0,7.8650656E0,3.613182E0,5.4050565E-1,1.4277434E0,0E0,2.8800316E0,3.1598659E0,0E0,0E0,2.202764E0,0E0,2.4774857E0,3.5962226E0,2.1755373E-1,2.5714715E0,0E0,1.4851621E0,2.0440445E0,4.102115E0,2.9335294E0,9.6937275E-1,0E0,0E0,0E0,0E0,0E0,0E0,0E0,0E0,0E0,0E0,0E0,0E0,0E0,0E0],"parents":[2147483647,0,0,1,1,2,2,4,4,5,5,6,6,7,7,9,9,10,10,13,13,15,15,16,16,17,17,18,18,20,20,21,21,22,22,23,23,24,24],"right_children":[2,4,6,-1,8,10,12,14,-1,16,18,-1,-1,20,-1,22,24,26,28,-1,30,32,34,36,38,-1,-1,-1,-1,-1,-1,-1,-1,-1,-1,-1,-1,-1,-1],"split_conditions":[5E-1,1.25E-1,8.112376E-1,3.0562723E-1,6.525E-1,5E-1,4.751491E-1,2.9807693E-1,2.9288968E-1,3.888889E-1,5.505538E-1,-4.3334663E-3,1.8860531E-1,5.672831E-1,-2.9055673E-1,5.546541E-1,5.0042677E-1,5.375E-1,1.6666667E-1,-2.2336441E-1,3.6619717E-1,5E-1,7.692308E-2,5.418915E-1,5.880282E-1,-5.2942447E-3,-1.7586529E-1,-9.419339E-3,5.084481E-1,2.3714337E-1,-5.069169E-2,-1.79182E-1,7.748532E-2,-1.0377735E-2,-2.3612285E-1,2.8604484E-1,-2.952667E-2,-2.0461851E-1,7.626513E-3],"split_indices":[69,12,2,0,11,46,5,1,0,14,5,0,0,2,0,8,2,11,14,0,9,37,1,5,9,0,0,0,0,0,0,0,0,0,0,0,0,0,0],"split_type":[0,0,0,0,0,0,0,0,0,0,0,0,0,0,0,0,0,0,0,0,0,0,0,0,0,0,0,0,0,0,0,0,0,0,0,0,0,0,0],"sum_hessian":[1.9021074E2,2.2649725E1,1.6756102E2,5.077209E0,1.7572517E1,1.6235345E2,5.2075653E0,1.39559E1,3.6166165E0,1.576133E2,4.740151E0,1.793762E0,3.4138033E0,9.970235E0,3.9856653E0,1.3898653E2,1.8626774E1,2.2384696E0,2.5016813E0,4.1770988E0,5.793136E0,1.0475234E2,3.4234188E1,9.600516E0,9.026257E0,1.0681413E0,1.1703284E0,1.4067831E0,1.0948982E0,1.3226318E0,4.4705043E0,1.0240618E2,2.346155E0,2.4971323E1,9.262864E0,3.4514773E0,6.149039E0,6.510994E0,2.5152628E0],"tree_param":{"num_deleted":"0","num_feature":"73","num_nodes":"39","size_leaf_vector":"0"}},{"base_weights":[-2.6488417E-1,-3.548535E-1,3.65978E-2,-4.225952E-1,7.367704E-2,2.0952068E-1,-5.838802E-1,-6.462028E-1,-3.3746305E-1,7.7054906E-1,-8.032346E-2,-3.7617743E-1,4.89132E-1,-7.2319597E-1,1.5427583E-1,-7.4633515E-1,4.997418E-2,1.0021063E0,-3.841087E-1,3.4512427E-1,-3.7795043E-1,-5.7851946E-1,4.9417722E-1,2.1238238E-2,7.713889E-1,-8.746471E-1,4.9060244E-2,-2.437643E-2,-8.115125E-1,1.0199099E0,-6.76412E-1,1.9990622E0,-4.2295712E-1,-5.3606844E-1,-2.6218787E-2,7.7232623E-1,-1.4805697E-1,2.5995982E-1,-7.03464E-1,-7.190335E-1,1.5291482E-1,6.4352334E-1,-3.5572523E-1,4.2245278E-1,1.1202724E0,-1.5958326E-1,1.2904868E-1,-4.3145505E-1,-9.453178E-1,-7.076789E-1,-1.6657838E-1,-2.561281E-1,5.4826903E-1,4.165483E-1,-5.7895744E-1,5.052753E-1,-2.1395431E-1,-8.2141346E-1,-8.423935E-2,-7.769171E-1,-1.6985917E-1,9.225182E-1,2.5133511E-2,-5.277862E-1,2.9423237E-1,-5.836965E-3,7.4359125E-1],"categories":[],"categories_nodes":[],"categories_segments":[],"categories_sizes":[],"default_left":[1,1,1,1,1,1,1,1,1,0,1,1,1,1,0,1,1,1,1,1,1,1,0,1,1,0,0,1,1,0,0,0,0,1,1,0,1,1,1,1,0,1,1,1,0,0,0,0,0,0,0,0,0,0,0,0,0,0,0,0,0,0,0,0,0,0,0],"id":10,"left_children":[1,3,5,7,9,11,13,15,17,-1,19,21,23,25,-1,27,29,31,33,35,37,39,-1,41,43,-1,-1,45,47,-1,-1,-1,-1,49,51,-1,53,55,57,59,-1,61,63,65,-1,-1,-1,-1,-1,-1,-1,-1,-1,-1,-1,-1,-1,-1,-1,-1,-1,-1,-1,-1,-1,-1,-1],"loss_changes":[4.659177E0,3.8635292E0,4.443723E0,1.9548302E0,2.0872214E0,5.4628215E0,1.0414484E0,2.1551933E0,5.681407E0,0E0,2.2022755E0,2.2197556E0,2.9224248E0,9.531369E-1,0E0,1.2330208E0,4.0418296E0,5.291497E0,4.4800196E0,1.6434202E0,2.2810555E0,1.0730088E0,0E0,2.4342399E0,1.2129707E0,0E0,0E0,8.7712E-2,8.323822E-1,0E0,0E0,0E0,0E0,3.5568924E0,3.5323157E0,0E0,1.2648642E0,5.899035E-1,4.3916583E-1,1.234746E-1,0E0,6.501144E-1,8.820492E-1,1.1776319E0,0E0,0E0,0E0,0E0,0E0,0E0,0E0,0E0,0E0,0E0,0E0,0E0,0E0,0E0,0E0,0E0,0E0,0E0,0E0,0E0,0E0,0E0,0E0],"parents":[2147483647,0,0,1,1,2,2,3,3,4,4,5,5,6,6,7,7,8,8,10,10,11,11,12,12,13,13,15,15,16,16,17,17,18,18,19,19,20,20,21,21,23,23,24,24,27,27,28,28,33,33,34,34,36,36,37,37,38,38,39,39,41,41,42,42,43,43],"right_children":[2,4,6,8,10,12,14,16,18,-1,20,22,24,26,-1,28,30,32,34,36,38,40,-1,42,44,-1,-1,46,48,-1,-1,-1,-1,50,52,-1,54,56,58,60,-1,62,64,66,-1,-1,-1,-1,-1,-1,-1,-1,-1,-1,-1,-1,-1,-1,-1,-1,-1,-1,-1,-1,-1,-1,-1],"split_conditions":[6.726885E-1,3.888889E-1,5.7692308E-2,4.7926724E-1,3.8335705E-1,3.590948E-1,6.825E-1,5.673077E-1,4.8835558E-1,2.3116472E-1,5.418915E-1,8.119488E-1,5.120704E-1,5E-1,4.6282753E-2,5E-1,5.075E-1,4.766714E-1,5.648649E-1,5.3541964E-1,3.740393E-1,7.161318E-1,1.4825317E-1,5.272727E-1,5.575E-1,-2.6239413E-1,1.4718073E-2,5.075E-1,4.241821E-1,3.0597296E-1,-2.0292361E-1,5.997187E-1,-1.2688714E-1,6.3823533E-1,5.5721605E-1,2.3169787E-1,5E-1,6.5947175E-1,7.135757E-1,7.2249997E-1,4.5874447E-2,4.3112752E-1,5.887446E-1,7.233286E-1,3.3608174E-1,-4.787498E-2,3.8714603E-2,-1.2943652E-1,-2.8359535E-1,-2.1230368E-1,-4.9973518E-2,-7.6838434E-2,1.6448072E-1,1.249645E-1,-1.7368723E-1,1.515826E-1,-6.41863E-2,-2.4642405E-1,-2.5271805E-2,-2.3307514E-1,-5.0957754E-2,2.7675548E-1,7.5400537E-3,-1.5833586E-1,8.826971E-2,-1.7510896E-3,2.2307739E-1],"split_indices":[2,14,1,5,2,8,11,1,5,0,5,2,5,68,0,69,11,2,2,2,8,5,0,3,11,0,0,11,2,0,0,0,0,6,8,0,67,5,5,11,0,5,0,2,0,0,0,0,0,0,0,0,0,0,0,0,0,0,0,0,0,0,0,0,0,0,0],"split_type":[0,0,0,0,0,0,0,0,0,0,0,0,0,0,0,0,0,0,0,0,0,0,0,0,0,0,0,0,0,0,0,0,0,0,0,0,0,0,0,0,0,0,0,0,0,0,0,0,0,0,0,0,0,0,0,0,0,0,0,0,0,0,0,0,0,0,0],"sum_hessian":[1.7029358E2,1.3101776E2,3.9275826E1,1.1314565E2,1.7872103E1,3.1233572E1,8.042254E0,2.9381584E1,8.376407E1,2.510087E0,1.5362015E1,9.981047E0,2.1252525E1,6.7824383E0,1.259816E0,2.5623993E1,3.7575915E0,2.1293726E0,8.16347E1,6.257518E0,9.104497E0,8.370386E0,1.6106603E0,8.401202E0,1.2851322E1,5.5595417E0,1.2228967E0,2.2355185E0,2.3388474E1,1.4360121E0,2.3215795E0,1.0158846E0,1.113488E0,5.6954155E1,2.4680542E1,3.0497572E0,3.2077606E0,3.1441934E0,5.960304E0,7.0357246E0,1.3346616E0,2.9025676E0,5.498635E0,7.5305276E0,5.3207946E0,1.166976E0,1.0685425E0,7.190174E0,1.61983E1,3.8266094E1,1.868806E1,1.802223E1,6.658312E0,1.4028826E0,1.804878E0,2.028165E0,1.1160282E0,4.7323666E0,1.2279373E0,5.989702E0,1.0460222E0,1.6612607E0,1.2413069E0,4.4963107E0,1.0023239E0,3.6476393E0,3.8828886E0],"tree_param":{"num_deleted":"0","num_feature":"73","num_nodes":"67","size_leaf_vector":"0"}},{"base_weights":[-2.1155506E-1,1.736361E-1,-2.6553085E-1,9.6085936E-1,-1.0536775E-1,-3.565005E-1,-6.492517E-2,-4.2443973E-1,8.9058924E-1,-4.1720134E-1,5.2255583E-3,7.925451E-2,-6.407698E-1,-2.0624998E-1,-8.428209E-1,-4.4135728E-1,4.2432114E-1,2.0387238E-1,-6.713969E-1,-3.376083E-1,3.0288327E-1,-8.0916923E-1,2.7959776E-1,-6.526874E-1,1.22279145E-1,-4.6552452E-1,3.569114E-1,6.642247E-1,-1.0602521E-1,-4.6770868E-1,4.201803E-1,-2.5935605E-1,5.237174E-1,-3.7598494E-2,-9.1938895E-1,-2.1791153E-1,5.619502E-1,-4.879126E-1,4.0704995E-1,8.127603E-1,2.0839784E-1,5.1154023E-1,-3.5718304E-1,3.3726376E-1,-5.8510345E-1,4.928699E-1,-5.6768537E-1,9.501786E-3,6.508711E-1],"categories":[],"categories_nodes":[],"categories_segments":[],"categories_sizes":[],"default_left":[1,1,1,0,1,1,1,1,0,1,1,1,1,1,0,1,0,1,0,1,1,1,0,0,1,1,0,1,1,1,0,1,1,0,0,0,0,0,0,0,0,0,0,0,0,0,0,0,0],"id":11,"left_children":[1,3,5,-1,7,9,11,13,-1,15,17,19,21,23,-1,25,-1,27,-1,29,31,33,-1,-1,35,37,-1,39,41,43,-1,45,47,-1,-1,-1,-1,-1,-1,-1,-1,-1,-1,-1,-1,-1,-1,-1,-1],"loss_changes":[3.270687E0,4.4207754E0,2.4665413E0,0E0,5.278682E0,2.058261E0,3.686244E0,9.5419145E-1,0E0,1.8175144E0,2.0782022E0,3.4498105E0,1.6022694E0,1.4651619E0,0E0,1.6796026E0,0E0,1.7727373E0,0E0,1.4792268E0,3.103119E0,6.2551546E-1,0E0,0E0,1.0622942E0,1.6945896E0,0E0,1.6499019E-1,1.4226323E0,1.2914019E0,0E0,1.9980569E0,1.1374011E0,0E0,0E0,0E0,0E0,0E0,0E0,0E0,0E0,0E0,0E0,0E0,0E0,0E0,0E0,0E0,0E0],"parents":[2147483647,0,0,1,1,2,2,4,4,5,5,6,6,7,7,9,9,10,10,11,11,12,12,13,13,15,15,17,17,19,19,20,20,21,21,24,24,25,25,27,27,28,28,29,29,31,31,32,32],"right_children":[2,4,6,-1,8,10,12,14,-1,16,18,20,22,24,-1,26,-1,28,-1,30,32,34,-1,-1,36,38,-1,40,42,44,-1,46,48,-1,-1,-1,-1,-1,-1,-1,-1,-1,-1,-1,-1,-1,-1,-1,-1],"split_conditions":[5E-1,1.25E-1,6.3115215E-1,2.882578E-1,6.525E-1,3.888889E-1,5.7692308E-2,2.9807693E-1,2.6717678E-1,5E-1,5.6145096E-1,3.980928E-1,7.32353E-1,5.672831E-1,-2.5284627E-1,5E-1,1.2729634E-1,5.418915E-1,-2.0141909E-1,8.1294453E-1,4.8210734E-1,3.9249998E-1,8.387933E-2,-1.9580622E-1,4.491887E-1,9.257313E-1,1.0707342E-1,4.99431E-1,3.9388335E-1,6.4352775E-1,1.260541E-1,5.121212E-1,5.181818E-1,-1.12795485E-2,-2.758167E-1,-6.537346E-2,1.6858506E-1,-1.4637378E-1,1.2211499E-1,2.438281E-1,6.251936E-2,1.5346208E-1,-1.0715491E-1,1.0117913E-1,-1.7553104E-1,1.4786097E-1,-1.7030561E-1,2.8505358E-3,1.9526134E-1],"split_indices":[69,12,2,0,11,14,1,1,0,40,2,8,6,2,0,58,0,5,0,2,5,11,0,0,8,5,0,2,2,2,0,3,3,0,0,0,0,0,0,0,0,0,0,0,0,0,0,0,0],"split_type":[0,0,0,0,0,0,0,0,0,0,0,0,0,0,0,0,0,0,0,0,0,0,0,0,0,0,0,0,0,0,0,0,0,0,0,0,0,0,0,0,0,0,0,0,0,0,0,0,0],"sum_hessian":[1.5409505E2,1.866657E1,1.3542847E2,4.245052E0,1.4421518E1,9.2640976E1,4.2787495E1,1.1356958E1,3.06456E0,7.919756E1,1.3443411E1,3.490929E1,7.8782024E0,8.445515E0,2.9114442E0,7.744989E1,1.747677E0,1.093248E1,2.510931E0,1.2010685E1,2.2898607E1,6.761814E0,1.1163884E0,3.1619937E0,5.2835207E0,7.557861E1,1.871278E0,3.9384906E0,6.993989E0,1.0577494E1,1.4331913E0,6.408431E0,1.6490177E1,1.0128294E0,5.7489843E0,3.263105E0,2.0204155E0,7.411777E1,1.4608403E0,2.3799236E0,1.5585669E0,1.7223122E0,5.2716765E0,1.1078811E0,9.469612E0,1.6890837E0,4.7193475E0,3.4823036E0,1.3007873E1],"tree_param":{"num_deleted":"0","num_feature":"73","num_nodes":"49","size_leaf_vector":"0"}},{"base_weights":[-1.6576639E-1,-2.1479401E-1,1.3301408E-1,6.599515E-2,-2.9706916E-1,-1.1428291E-1,6.7722636E-1,8.865388E-1,-8.002333E-2,-3.3185866E-3,-3.9299577E-1,7.793419E-1,-3.142618E-1,1.7014159E0,-2.5639102E-1,3.634714E-1,-3.6926106E-1,-3.164749E-1,4.7783566E-1,-4.4363582E-1,2.9705814E-1,-6.30369E-1,2.2334923E-1,2.2497437E0,2.7713263E-1,2.7992097E-1,-5.5427104E-1,-2.8034267E-1,1.361599E0,-5.043191E-1,4.240942E-1,-4.3675083E-1,6.470354E-1,-2.2225468E-1,9.581035E-1,-5.0126535E-1,1.936985E-1,-2.6570076E-1,4.9131986E-1,2.7889973E-1,-7.9975706E-1,-5.5261153E-1,6.988598E-1,2.8154114E-1,-6.578622E-1,1.832328E0,4.28894E-1,4.4800612E-1,-6.393349E-1,4.8136857E-1,-5.859067E-1,4.0335247E-1,-5.949996E-1,1.7852215E0,-3.6572397E-2,-5.5291766E-1,3.2793579E-1,-1.9638051E-1,1.0445441E0,1.0585461E-1,6.1275476E-1,1.683101E-2,9.5524013E-1],"categories":[],"categories_nodes":[],"categories_segments":[],"categories_sizes":[],"default_left":[1,1,1,1,1,1,1,0,1,1,1,0,1,1,1,1,1,1,1,1,1,1,1,0,0,0,0,1,1,1,0,1,0,1,1,1,1,0,1,0,0,0,1,0,0,0,0,0,0,0,0,0,0,0,0,0,0,0,0,0,0,0,0],"id":12,"left_children":[1,3,5,7,9,11,13,-1,15,17,19,-1,21,23,25,27,29,31,33,35,37,39,41,-1,-1,-1,-1,43,45,47,-1,49,-1,51,53,55,57,-1,59,-1,-1,-1,61,-1,-1,-1,-1,-1,-1,-1,-1,-1,-1,-1,-1,-1,-1,-1,-1,-1,-1,-1,-1],"loss_changes":[2.08497E0,2.8144078E0,2.8237026E0,3.4536862E0,2.6402502E0,2.9051628E0,6.670699E0,0E0,3.3263729E0,3.7803156E0,2.600895E0,0E0,2.3290887E0,1.9070053E0,8.388909E-1,7.017991E0,1.8809133E0,2.043066E0,3.5396273E0,2.5296192E0,7.2413695E-1,1.5122597E0,2.4178774E0,0E0,0E0,0E0,0E0,1.6927764E0,1.0669413E0,2.0545957E0,0E0,2.2132614E0,0E0,1.3680433E0,5.04816E0,2.7946177E0,2.2672868E0,0E0,1.4050555E-1,0E0,0E0,0E0,6.581168E-1,0E0,0E0,0E0,0E0,0E0,0E0,0E0,0E0,0E0,0E0,0E0,0E0,0E0,0E0,0E0,0E0,0E0,0E0,0E0,0E0],"parents":[2147483647,0,0,1,1,2,2,3,3,4,4,5,5,6,6,8,8,9,9,10,10,12,12,13,13,14,14,15,15,16,16,17,17,18,18,19,19,20,20,21,21,22,22,27,27,28,28,29,29,31,31,33,33,34,34,35,35,36,36,38,38,42,42],"right_children":[2,4,6,8,10,12,14,-1,16,18,20,-1,22,24,26,28,30,32,34,36,38,40,42,-1,-1,-1,-1,44,46,48,-1,50,-1,52,54,56,58,-1,60,-1,-1,-1,62,-1,-1,-1,-1,-1,-1,-1,-1,-1,-1,-1,-1,-1,-1,-1,-1,-1,-1,-1,-1],"split_conditions":[6.625E-1,1.25E-1,5.17316E-1,5E-1,3.697183E-1,5E-1,5.757576E-1,2.6596165E-1,5.337972E-1,6.2647057E-1,7.904694E-1,2.3380257E-1,5.9217644E-1,7.125E-1,5.323529E-1,4.7926724E-1,6.9502133E-1,8.318659E-1,2.922535E-1,7.7878785E-1,3.1385282E-1,2.099567E-1,5.1192844E-1,6.749231E-1,8.313979E-2,8.397629E-2,-1.6628131E-1,3.8199377E-1,3.831169E-1,2.1861473E-1,1.2722826E-1,4.4545454E-1,1.9411063E-1,5.00142E-1,4.3939394E-1,5E-1,4.903846E-1,-7.971023E-2,5.205883E-1,8.366992E-2,-2.3992713E-1,-1.6578346E-1,2.5324675E-1,8.4462345E-2,-1.9735867E-1,5.496984E-1,1.286682E-1,1.3440184E-1,-1.9180049E-1,1.4441058E-1,-1.7577201E-1,1.21005744E-1,-1.7849989E-1,5.3556645E-1,-1.0971719E-2,-1.658753E-1,9.838074E-2,-5.8914155E-2,3.1336325E-1,3.1756382E-2,1.8382643E-1,5.049303E-3,2.8657204E-1],"split_indices":[11,12,0,69,9,69,0,0,5,6,2,0,2,11,6,5,2,5,9,3,0,0,5,0,0,0,0,5,0,0,0,3,0,5,0,14,1,0,6,0,0,0,0,0,0,0,0,0,0,0,0,0,0,0,0,0,0,0,0,0,0,0,0],"split_type":[0,0,0,0,0,0,0,0,0,0,0,0,0,0,0,0,0,0,0,0,0,0,0,0,0,0,0,0,0,0,0,0,0,0,0,0,0,0,0,0,0,0,0,0,0,0,0,0,0,0,0,0,0,0,0,0,0,0,0,0,0,0,0],"sum_hessian":[1.3938297E2,1.1997678E2,1.940619E1,2.7233156E1,9.274362E1,1.388615E1,5.520041E0,3.3479729E0,2.3885183E1,2.308533E1,6.9658295E1,2.009479E0,1.1876671E1,2.2401633E0,3.2798777E0,9.327091E0,1.4558093E1,1.4191279E1,8.89405E0,6.522855E1,4.429741E0,7.370431E0,4.5062404E0,1.1990033E0,1.0411601E0,1.1927338E0,2.0871437E0,6.107045E0,3.220046E0,1.2751622E1,1.8064706E0,1.3102403E1,1.0888768E0,3.8374276E0,5.056622E0,6.0015305E1,5.2132487E0,1.0423628E0,3.3873782E0,1.0558978E0,6.314533E0,1.6505884E0,2.8556519E0,2.5564175E0,3.5506277E0,1.4989874E0,1.7210587E0,1.2955277E0,1.1456095E1,1.51984E0,1.1582562E1,1.4020846E0,2.435343E0,2.326912E0,2.7297099E0,5.6809723E1,3.2055807E0,4.1018887E0,1.1113598E0,1.2598841E0,2.127494E0,1.0713283E0,1.7843236E0],"tree_param":{"num_deleted":"0","num_feature":"73","num_nodes":"63","size_leaf_vector":"0"}},{"base_weights":[-1.15251414E-1,-3.3511904E-1,-4.1099023E-2,-6.4759207E-1,3.909221E-2,1.0215108E0,-7.807937E-2,1.6306765E-1,-7.1146953E-1,5.140159E-1,-4.4629982E-1,1.4346564E0,2.125784E-2,-3.9086246E-1,2.4201265E-2,-7.765305E-1,-4.864536E-2,1.6660908E0,1.3096005E-1,-5.945966E-1,3.0097112E-1,-6.344676E-1,1.9660096E-1,-1.9444905E-1,2.4210042E-1,-2.5042377E-2,-8.285102E-1,-2.352851E-1,1.0722313E0,-7.746257E-1,-3.8584272E-4,-5.028429E-2,-7.388885E-1,-2.6979196E-1,1.2035228E0,3.959241E-1,-3.3037248E-1,9.047627E-2,1.0345298E0,-1.699173E-1,-8.9277875E-1,-6.062969E-1,1.8315265E-1,1.6205084E-1,-2.7482548E-1,3.245719E-2,-8.131841E-1,-6.846483E-1,2.5497684E-1,-3.1437206E-1,9.4397837E-1,-4.6824968E-1,1.362312E-1,-1.1918733E-1,4.7656876E-1,3.1994432E-1,1.2940025E0],"categories":[],"categories_nodes":[],"categories_segments":[],"categories_sizes":[],"default_left":[1,1,1,1,1,1,1,0,1,1,1,0,0,1,1,1,0,0,1,1,0,1,1,1,1,0,1,1,0,0,0,1,1,1,0,1,1,1,1,0,0,0,0,0,0,0,0,0,0,0,0,0,0,0,0,0,0],"id":13,"left_children":[1,3,5,7,9,11,13,-1,15,17,19,-1,-1,21,23,25,-1,-1,27,29,-1,31,33,35,37,-1,39,41,-1,-1,-1,43,45,47,-1,49,51,53,55,-1,-1,-1,-1,-1,-1,-1,-1,-1,-1,-1,-1,-1,-1,-1,-1,-1,-1],"loss_changes":[2.1105933E0,3.8515294E0,3.9534304E0,1.0423574E0,3.8793163E0,1.3688788E0,3.086777E0,0E0,6.8535995E-1,3.5186315E0,1.1060044E0,0E0,0E0,3.5252821E0,3.5455241E0,5.731163E-1,0E0,0E0,2.8171194E0,7.823677E-1,0E0,1.001893E0,3.9542117E0,3.1164253E0,4.3788295E0,0E0,4.4884968E-1,1.0698491E0,0E0,0E0,0E0,2.1884538E-1,8.5032463E-1,1.5023239E0,0E0,3.1843836E0,2.044521E0,2.6747653E0,6.7671347E-1,0E0,0E0,0E0,0E0,0E0,0E0,0E0,0E0,0E0,0E0,0E0,0E0,0E0,0E0,0E0,0E0,0E0,0E0],"parents":[2147483647,0,0,1,1,2,2,3,3,4,4,5,5,6,6,8,8,9,9,10,10,13,13,14,14,15,15,18,18,19,19,21,21,22,22,23,23,24,24,26,26,27,27,31,31,32,32,33,33,35,35,36,36,37,37,38,38],"right_children":[2,4,6,8,10,12,14,-1,16,18,20,-1,-1,22,24,26,-1,-1,28,30,-1,32,34,36,38,-1,40,42,-1,-1,-1,44,46,48,-1,50,52,54,56,-1,-1,-1,-1,-1,-1,-1,-1,-1,-1,-1,-1,-1,-1,-1,-1,-1,-1],"split_conditions":[4.7926724E-1,1.6666667E-1,4.8551548E-1,4.2121214E-1,4.0968475E-1,4.8249358E-1,5E-1,4.89203E-2,7.903272E-1,3.133803E-1,7.5462306E-1,4.3039694E-1,6.3773524E-3,6.6176474E-1,5.648649E-1,2.9317212E-1,-1.4593608E-2,4.9982727E-1,6.1688316E-1,3.888889E-1,9.0291336E-2,5E-1,5.649351E-1,5.340812E-1,6.218332E-1,-7.5127133E-3,5E-1,2.777778E-1,3.216694E-1,-2.3238772E-1,-1.15752824E-4,4.2200398E-1,2.9900426E-1,4.753521E-1,3.6105686E-1,5.090883E-1,5.809859E-1,6.9014484E-1,5E-1,-5.0975192E-2,-2.6783365E-1,-1.8188907E-1,5.4945797E-2,4.8615254E-2,-8.244765E-2,9.737158E-3,-2.4395524E-1,-2.0539449E-1,7.6493055E-2,-9.4311625E-2,2.8319353E-1,-1.4047492E-1,4.0869363E-2,-3.57562E-2,1.4297064E-1,9.5983304E-2,3.882008E-1],"split_indices":[5,14,5,3,5,8,71,0,2,9,2,0,0,6,2,2,0,0,0,14,0,69,0,5,8,0,69,14,0,0,0,8,2,9,0,5,9,5,67,0,0,0,0,0,0,0,0,0,0,0,0,0,0,0,0,0,0],"split_type":[0,0,0,0,0,0,0,0,0,0,0,0,0,0,0,0,0,0,0,0,0,0,0,0,0,0,0,0,0,0,0,0,0,0,0,0,0,0,0,0,0,0,0,0,0,0,0,0,0,0,0,0,0,0,0,0,0],"sum_hessian":[1.2929955E2,3.1722006E1,9.757754E1,1.6888912E1,1.4833095E1,2.3862715E0,9.519127E1,1.1201701E0,1.5768741E1,7.4675875E0,7.3655066E0,1.3814023E0,1.0048693E0,2.2761904E1,7.242936E1,1.420306E1,1.5656815E0,1.0275791E0,6.4400086E0,6.3163323E0,1.0491743E0,1.6033312E1,6.728592E0,3.6206085E1,3.6223278E1,1.014717E0,1.3188343E1,5.1760583E0,1.2639502E0,4.614613E0,1.7017192E0,2.655978E0,1.3377335E1,5.098908E0,1.6296841E0,6.4178395E0,2.9788244E1,3.1340696E1,4.882581E0,1.496527E0,1.1691815E1,2.505542E0,2.6705165E0,1.5081313E0,1.1478468E0,1.2247691E0,1.2152566E1,2.6775236E0,2.4213843E0,2.980892E0,3.4369476E0,2.2991064E1,6.79718E0,2.075902E1,1.05816765E1,1.8954861E0,2.987095E0],"tree_param":{"num_deleted":"0","num_feature":"73","num_nodes":"57","size_leaf_vector":"0"}},{"base_weights":[-8.487521E-2,-7.373739E-1,-5.5416927E-2,-8.336143E-1,-2.4676143E-1,6.8844986E-1,-7.753991E-2,-2.122386E-1,1.1504194E0,-1.260227E-1,1.939195E-1,-1.4682771E-1,7.063998E-1,-2.7024435E-2,6.046643E-1,-3.7924358E-1,-7.282481E-2,7.299245E-1,-2.1444061E-1,1.3479445E0,-1.9116443E-1,7.1717596E-1,-4.839837E-1,2.2909603E-1,-1.835269E-1,-3.8740698E-1,5.136589E-1,1.8916999E0,1.6233955E-1,-4.7548032E-1,2.9542658E-1],"categories":[],"categories_nodes":[],"categories_segments":[],"categories_sizes":[],"default_left":[1,1,1,0,0,1,1,0,0,1,1,1,0,1,1,1,1,0,1,1,1,0,0,0,0,0,0,0,0,0,0],"id":14,"left_children":[1,3,5,-1,-1,7,9,-1,-1,11,13,15,-1,17,19,21,23,-1,25,27,29,-1,-1,-1,-1,-1,-1,-1,-1,-1,-1],"loss_changes":[2.3375485E0,4.2834044E-2,2.0195014E0,0E0,0E0,1.7220361E0,1.5632548E0,0E0,0E0,1.8322811E0,1.6600082E0,1.6614356E0,0E0,1.9630357E0,4.030219E0,3.0434637E0,2.573005E0,0E0,1.581757E0,1.8989363E0,6.8773043E-1,0E0,0E0,0E0,0E0,0E0,0E0,0E0,0E0,0E0,0E0],"parents":[2147483647,0,0,1,1,2,2,5,5,6,6,9,9,10,10,11,11,13,13,14,14,15,15,16,16,18,18,19,19,20,20],"right_children":[2,4,6,-1,-1,8,10,-1,-1,12,14,16,-1,18,20,22,24,-1,26,28,30,-1,-1,-1,-1,-1,-1,-1,-1,-1,-1],"split_conditions":[2.625E-1,6.6176474E-1,2.925E-1,-2.500843E-1,-7.402843E-2,3.896104E-1,6.625E-1,-6.367158E-2,3.4512582E-1,5E-1,5.17316E-1,5E-1,2.1191995E-1,5E-1,5.757576E-1,3.275E-1,3.697183E-1,2.1897736E-1,6.2411046E-1,5.991465E-1,6.3755333E-1,2.151528E-1,-1.4519511E-1,6.872881E-2,-5.5058073E-2,-1.162221E-1,1.5409768E-1,5.6751E-1,4.8701867E-2,-1.426441E-1,8.862798E-2],"split_indices":[11,6,11,0,0,0,11,0,0,19,0,71,0,69,0,11,9,0,8,2,2,0,0,0,0,0,0,0,0,0,0],"split_type":[0,0,0,0,0,0,0,0,0,0,0,0,0,0,0,0,0,0,0,0,0,0,0,0,0,0,0,0,0,0,0],"sum_hessian":[1.2273709E2,4.2637706E0,1.1847332E2,2.9800613E0,1.2837095E0,2.5518053E0,1.1592152E2,1.0483826E0,1.5034225E0,9.88098E1,1.7111721E1,9.7203964E1,1.6058369E0,1.17340555E1,5.3776646E0,2.2479477E1,7.472449E1,1.7542405E0,9.9798155E0,2.4219108E0,2.955754E0,1.4503208E0,2.1029156E1,1.9760809E1,5.4963676E1,8.442214E0,1.5376011E0,1.2521014E0,1.1698093E0,1.8800638E0,1.0756904E0],"tree_param":{"num_deleted":"0","num_feature":"73","num_nodes":"31","size_leaf_vector":"0"}},{"base_weights":[-5.6514848E-2,-6.4728457E-1,-3.1775784E-2,-7.414611E-1,-2.0966198E-1,-1.292641E-2,-7.9285115E-1,-2.200991E-1,5.204511E-2,-5.248453E-1,8.3698064E-2,9.457547E-1,2.3739193E-2,-7.2502095E-1,-1.466363E-1,4.460142E-1,-3.5867172E-1,-2.9854141E-2,3.2356134E-1,-2.3003215E-2,-8.1234515E-1,4.4949627E-1,-5.5144274E-1,9.2774814E-1,-1.774866E-1,-4.919668E-1,2.2178839E-1,1.2845168E-2,-5.4444003E-1,9.9835783E-1,9.0292595E-2],"categories":[],"categories_nodes":[],"categories_segments":[],"categories_sizes":[],"default_left":[1,1,1,0,0,1,0,1,1,1,1,0,1,1,1,1,1,1,1,0,0,0,0,0,0,0,0,0,0,0,0],"id":15,"left_children":[1,3,5,-1,-1,7,-1,9,11,13,15,-1,17,19,21,23,25,27,29,-1,-1,-1,-1,-1,-1,-1,-1,-1,-1,-1,-1],"loss_changes":[1.7389855E0,4.184699E-2,1.662551E0,0E0,0E0,1.5567547E0,0E0,2.5991163E0,2.2088833E0,9.4722295E-1,2.5134456E0,0E0,1.3999423E0,5.236044E-1,1.7125986E0,2.7231386E0,6.63543E-1,1.6399283E0,1.9884527E0,0E0,0E0,0E0,0E0,0E0,0E0,0E0,0E0,0E0,0E0,0E0,0E0],"parents":[2147483647,0,0,1,1,2,2,5,5,7,7,8,8,9,9,10,10,12,12,13,13,14,14,15,15,16,16,17,17,18,18],"right_children":[2,4,6,-1,-1,8,-1,10,12,14,16,-1,18,20,22,24,26,28,30,-1,-1,-1,-1,-1,-1,-1,-1,-1,-1,-1,-1],"split_conditions":[2.625E-1,6.6176474E-1,5E-1,-2.2243834E-1,-6.28986E-2,4.7926724E-1,-2.3785536E-1,1.6666667E-1,4.829594E-1,6.388335E-1,4.0968475E-1,2.8372642E-1,6.625E-1,2.9743955E-1,4.7E-1,5.852941E-1,7.4153626E-1,4.25E-1,6.775E-1,-6.900965E-3,-2.4370356E-1,1.348489E-1,-1.6543283E-1,2.7832446E-1,-5.324598E-2,-1.4759006E-1,6.653652E-2,3.8535504E-3,-1.6333202E-1,2.9950735E-1,2.708778E-2],"split_indices":[11,6,26,0,0,5,0,14,5,2,5,0,11,2,11,6,2,12,11,0,0,0,0,0,0,0,0,0,0,0,0],"split_type":[0,0,0,0,0,0,0,0,0,0,0,0,0,0,0,0,0,0,0,0,0,0,0,0,0,0,0,0,0,0,0],"sum_hessian":[1.1939291E2,3.7873116E0,1.156056E2,2.5452743E0,1.2420372E0,1.1380402E2,1.8015727E0,2.6599474E1,8.720455E1,1.2915754E1,1.368372E1,1.6821368E0,8.5522415E1,7.846064E0,5.06969E0,7.5179887E0,6.1657305E0,7.331734E1,1.2205077E1,1.0077745E0,6.8382897E0,2.00567E0,3.06402E0,3.9658763E0,3.5521123E0,5.138252E0,1.0274788E0,6.8600075E1,4.7172594E0,2.2927582E0,9.912319E0],"tree_param":{"num_deleted":"0","num_feature":"73","num_nodes":"31","size_leaf_vector":"0"}},{"base_weights":[-4.58844E-2,-2.2461282E-2,-5.686114E-1,-7.199015E-2,2.2998416E-1,-6.728808E-1,-1.5161408E-1,-1.0917648E-1,3.3690456E-1,-7.726004E-2,7.4850106E-1,-5.828468E-1,-3.3537094E-2,-6.654809E-2,1.2266692E0,-3.3110508E-1,5.94006E-1,1.2460663E0,-8.2251795E-2,-7.0600045E-1,2.0221348E-1,-3.212736E-1,5.095348E-2,-3.308238E-1,6.9842374E-1,-5.429144E-1,3.6150698E-2,1.3716025E0,-2.9910538E-1,1.7144685E0,-1.09521545E-1,4.9104658E-1,-4.9341604E-1,-8.3244777E-1,-5.7862494E-2,6.869822E-1,-4.3061876E-1,1.1253442E0,-2.279744E-3,-5.1850253E-1,2.6459858E-1,2.012499E-1,-7.6158035E-1,-3.8354248E-1,6.3851726E-1],"categories":[],"categories_nodes":[],"categories_segments":[],"categories_sizes":[],"default_left":[1,1,1,1,1,0,0,1,1,1,1,1,1,1,0,1,1,1,1,1,0,1,1,1,0,1,1,0,0,0,0,0,0,0,0,0,0,0,0,0,0,0,0,0,0],"id":16,"left_children":[1,3,5,7,9,-1,-1,11,13,15,17,19,21,23,-1,25,27,29,31,33,-1,35,37,39,-1,41,43,-1,-1,-1,-1,-1,-1,-1,-1,-1,-1,-1,-1,-1,-1,-1,-1,-1,-1],"loss_changes":[1.442356E0,1.4518057E0,1.1781132E-1,1.5074916E0,3.0952225E0,0E0,0E0,3.18405E0,3.0639627E0,2.3911147E0,3.0734468E0,1.3272643E0,1.9166238E0,1.5783805E0,0E0,7.964729E-1,3.1129258E0,3.0813298E0,1.0980403E0,8.379955E-1,0E0,2.266965E0,3.5076647E0,7.665476E-1,0E0,1.1940802E0,1.405414E0,0E0,0E0,0E0,0E0,0E0,0E0,0E0,0E0,0E0,0E0,0E0,0E0,0E0,0E0,0E0,0E0,0E0,0E0],"parents":[2147483647,0,0,1,1,2,2,3,3,4,4,7,7,8,8,9,9,10,10,11,11,12,12,13,13,15,15,16,16,17,17,18,18,19,19,21,21,22,22,23,23,25,25,26,26],"right_children":[2,4,6,8,10,-1,-1,12,14,16,18,20,22,24,-1,26,28,30,32,34,-1,36,38,40,-1,42,44,-1,-1,-1,-1,-1,-1,-1,-1,-1,-1,-1,-1,-1,-1,-1,-1,-1,-1],"split_conditions":[8.029412E-1,6.0276115E-1,5.739436E-1,7.7878785E-1,6.5588236E-1,-2.0186426E-1,-4.5484226E-2,3.625E-1,5E-1,5.880282E-1,5.9187734E-1,6.25E-1,4.801193E-1,5.096154E-1,3.6800078E-1,6.187767E-1,4.575E-1,4.9647886E-1,3.4848487E-1,7.3399717E-1,6.0664047E-2,1.7099568E-1,4.8835558E-1,8.818182E-1,2.0952713E-1,4.5924455E-1,5.842091E-1,4.1148078E-1,-8.973162E-2,5.143406E-1,-3.2856464E-2,1.4731398E-1,-1.4802481E-1,-2.4973434E-1,-1.7358748E-2,2.0609467E-1,-1.2918563E-1,3.3760327E-1,-6.8392325E-4,-1.5555076E-1,7.937957E-2,6.037497E-2,-2.2847411E-1,-1.1506275E-1,1.9155519E-1],"split_indices":[6,8,9,3,6,0,0,11,66,9,5,1,5,1,0,2,11,9,0,2,0,0,5,3,0,5,5,0,0,0,0,0,0,0,0,0,0,0,0,0,0,0,0,0,0],"split_type":[0,0,0,0,0,0,0,0,0,0,0,0,0,0,0,0,0,0,0,0,0,0,0,0,0,0,0,0,0,0,0,0,0,0,0,0,0,0,0,0,0,0,0,0,0],"sum_hessian":[1.1784516E2,1.1378929E2,4.055868E0,9.572352E1,1.8065773E1,2.7536817E0,1.3021865E0,8.841568E1,7.307838E0,1.1878332E1,6.18744E0,1.1251393E1,7.716428E1,5.664533E0,1.6433047E0,8.986686E0,2.891647E0,3.5570695E0,2.6303701E0,9.8127575E0,1.4386365E0,1.6879137E1,6.028515E1,4.631885E0,1.0326482E0,5.3962045E0,3.5904808E0,1.2593894E0,1.6322577E0,2.4468553E0,1.1102142E0,1.0174402E0,1.61293E0,7.9729247E0,1.8398324E0,1.1345866E0,1.5744551E1,1.8951905E0,5.8389957E1,3.6200278E0,1.0118572E0,1.243607E0,4.1525974E0,2.330206E0,1.2602749E0],"tree_param":{"num_deleted":"0","num_feature":"73","num_nodes":"45","size_leaf_vector":"0"}},{"base_weights":[-2.8938621E-2,-1.3763712E-2,-7.208955E-1,-3.5873342E-2,4.2669874E-1,1.5423921E-1,-9.662181E-2,-3.1503612E-1,7.631629E-1,4.9217024E-1,-6.741992E-2,-2.5145036E-1,5.2185707E-2,2.2215168E-1,1.1878592E0,5.093123E-2,9.651159E-1,7.396142E-1,-2.1884005E-1,-4.0069386E-1,9.8257214E-2,-3.3176112E-1,1.7751843E-1,5.466978E-1,-2.1223259E-1,-1.6037579E-1,4.4337517E-1,1.405693E0,1.4167206E-1,-4.2798144E-1,3.2937452E-1,-5.4102564E-1,6.2277306E-2,5.481718E-1,-1.3923846E-1,2.8010952E-1,-4.8545766E-1,-4.9547363E-2,4.5397815E-1],"categories":[],"categories_nodes":[],"categories_segments":[],"categories_sizes":[],"default_left":[1,1,0,1,1,1,1,0,1,1,1,1,1,1,0,1,1,0,1,1,1,1,1,0,0,0,0,0,0,0,0,0,0,0,0,0,0,0,0],"id":17,"left_children":[1,3,-1,5,7,9,11,-1,13,15,17,19,21,23,-1,25,27,-1,29,31,33,35,37,-1,-1,-1,-1,-1,-1,-1,-1,-1,-1,-1,-1,-1,-1,-1,-1],"loss_changes":[1.2121542E0,1.1343135E0,0E0,1.2891799E0,1.6304449E0,2.0634313E0,1.9537979E0,0E0,6.8362546E-1,2.2164433E0,2.2695162E0,2.2028532E0,2.1656005E0,5.451071E-1,0E0,6.2441754E-1,1.6816907E0,0E0,1.894525E0,1.9340882E0,1.4870162E0,1.1819738E0,2.1352782E0,0E0,0E0,0E0,0E0,0E0,0E0,0E0,0E0,0E0,0E0,0E0,0E0,0E0,0E0,0E0,0E0],"parents":[2147483647,0,0,1,1,3,3,4,4,5,5,6,6,8,8,9,9,10,10,11,11,12,12,13,13,15,15,16,16,18,18,19,19,20,20,21,21,22,22],"right_children":[2,4,-1,6,8,10,12,-1,14,16,18,20,22,24,-1,26,28,-1,30,32,34,36,38,-1,-1,-1,-1,-1,-1,-1,-1,-1,-1,-1,-1,-1,-1,-1,-1],"split_conditions":[5E-1,7.625E-1,-2.1626867E-1,1.25E-1,4.612676E-1,5.177506E-1,2.25E-1,-9.451084E-2,6.3823533E-1,4.7926724E-1,5E-1,2.777778E-1,4.801193E-1,7.775E-1,3.5635775E-1,5E-1,5.9411764E-1,2.2188427E-1,5E-1,6.999432E-1,3.6267605E-1,2.6623377E-1,6.2058824E-1,1.6400935E-1,-6.366978E-2,-4.811274E-2,1.3301256E-1,4.2170793E-1,4.250162E-2,-1.2839444E-1,9.8812364E-2,-1.623077E-1,1.8683193E-2,1.6445155E-1,-4.177154E-2,8.403286E-2,-1.456373E-1,-1.4864209E-2,1.3619345E-1],"split_indices":[26,11,0,12,9,5,12,0,6,5,69,14,5,11,0,66,6,0,68,5,9,0,6,0,0,0,0,0,0,0,0,0,0,0,0,0,0,0,0],"split_type":[0,0,0,0,0,0,0,0,0,0,0,0,0,0,0,0,0,0,0,0,0,0,0,0,0,0,0,0,0,0,0,0,0,0,0,0,0,0,0],"sum_hessian":[1.1538397E2,1.1390585E2,1.4781128E0,1.0933613E2,4.5697255E0,2.6104143E1,8.323199E1,1.4459084E0,3.123817E0,9.856696E0,1.6247446E1,4.0452713E1,4.2779274E1,2.0436015E0,1.0802156E0,5.672332E0,4.184365E0,1.953141E0,1.4294306E1,2.8250534E1,1.2202181E1,1.0122563E1,3.265671E1,1.0216943E0,1.0219072E0,4.0714474E0,1.6008843E0,2.2652633E0,1.9191014E0,1.0505733E1,3.7885725E0,2.1549917E1,6.700616E0,3.763821E0,8.438359E0,1.8670993E0,8.255465E0,1.838075E1,1.4275959E1],"tree_param":{"num_deleted":"0","num_feature":"73","num_nodes":"39","size_leaf_vector":"0"}},{"base_weights":[-1.721933E-2,-5.5304978E-2,3.012629E-1,-3.2947004E-2,-5.8302003E-1,-4.549479E-1,4.363678E-1,-5.3740925E-1,-6.9416123E-3,6.420425E-1,-2.7939177E-1,-7.2772646E-1,-2.3893295E-2,6.0191077E-1,-3.19452E-2,-2.2770078E-1,7.850904E-1,1.5105732E-1,-5.717382E-1,-1.8866044E-1,1.1540785E0,-1.0528942E-1,1.6911362E-1,2.9205646E-2,-3.0573767E-1,-5.6576706E-2,9.649082E-1],"categories":[],"categories_nodes":[],"categories_segments":[],"categories_sizes":[],"default_left":[1,1,1,1,0,0,1,1,1,1,1,0,0,1,1,0,0,0,0,0,0,1,1,0,0,0,0],"id":18,"left_children":[1,3,5,7,-1,-1,9,11,13,15,17,-1,-1,19,21,-1,-1,-1,-1,-1,-1,23,25,-1,-1,-1,-1],"loss_changes":[1.3982214E0,1.1910827E0,1.4573292E0,1.301183E0,0E0,0E0,1.7933979E0,4.579028E-1,1.4746882E0,1.2760744E0,4.8201025E-1,0E0,0E0,1.886032E0,1.3860515E0,0E0,0E0,0E0,0E0,0E0,0E0,1.8583561E0,4.577668E0,0E0,0E0,0E0,0E0],"parents":[2147483647,0,0,1,1,2,2,3,3,6,6,7,7,8,8,9,9,10,10,13,13,14,14,21,21,22,22],"right_children":[2,4,6,8,-1,-1,10,12,14,16,18,-1,-1,20,22,-1,-1,-1,-1,-1,-1,24,26,-1,-1,-1,-1],"split_conditions":[7.5590324E-1,8.029412E-1,3.9321214E-1,3.9117646E-1,-1.7490602E-1,-1.3648437E-1,1.3461539E-1,2.777778E-1,4.2058825E-1,2.7156276E-1,7.937411E-1,-2.1831794E-1,-7.167989E-3,5.035211E-1,5.546541E-1,-6.831024E-2,2.3552713E-1,4.5317195E-2,-1.7152146E-1,-5.6598134E-2,3.4622356E-1,6.199943E-1,7.1258163E-1,8.761695E-3,-9.1721304E-2,-1.6973013E-2,2.8947246E-1],"split_indices":[2,6,5,6,0,0,1,14,6,8,2,0,0,9,8,0,0,0,0,0,0,5,5,0,0,0,0],"split_type":[0,0,0,0,0,0,0,0,0,0,0,0,0,0,0,0,0,0,0,0,0,0,0,0,0,0,0],"sum_hessian":[1.1289986E2,1.0157891E2,1.13209505E1,9.846944E1,3.1094716E0,1.3571771E0,9.963774E0,3.8632565E0,9.460618E1,7.8197474E0,2.144026E0,2.5142796E0,1.3489767E0,2.8217556E0,9.1784424E1,1.0208869E0,6.7988605E0,1.0626622E0,1.0813638E0,1.431097E0,1.3906586E0,6.76007E1,2.4183727E1,4.0967182E1,2.6633514E1,1.9564161E1,4.619564E0],"tree_param":{"num_deleted":"0","num_feature":"73","num_nodes":"27","size_leaf_vector":"0"}},{"base_weights":[-1.3751301E-2,6.462035E-3,-5.047924E-1,-4.84286E-2,2.0404609E-1,-6.067207E-1,-1.3570727E-1,-8.3069764E-2,3.4479958E-1,2.8947169E-2,7.26148E-1,-4.3249053E-1,-3.1282123E-2,7.209769E-1,-4.3572584E-1,3.0700555E-1,-2.7354836E-1,1.4624522E0,7.906212E-2,-6.6567624E-1,2.5283772E-1,8.4295446E-1,-6.50559E-2,-2.5614658E-1,1.0546013E0,-1.7718728E-1,6.677194E-1,3.9741218E-1,-4.7136623E-1,-2.78075E-1,5.774878E-1,-7.7615196E-1,-1.352365E-1,5.0139195E-1,-8.396268E-2,-1.0004927E-1,6.896675E-1,1.5739979E0,-1.1557367E-1,-4.2002288E-1,3.752544E-1,1.5127763E-1,1.3209416E0,2.6718837E-1,-6.255196E-1,-3.696632E-1,-4.345113E-2],"categories":[],"categories_nodes":[],"categories_segments":[],"categories_sizes":[],"default_left":[1,1,1,1,1,0,0,1,1,1,1,1,1,1,0,1,1,0,1,1,1,0,1,0,1,1,1,0,1,1,0,0,0,0,0,0,0,0,0,0,0,0,0,0,0,0,0],"id":19,"left_children":[1,3,5,7,9,-1,-1,11,13,15,17,19,21,23,-1,25,27,-1,29,31,33,-1,35,-1,37,39,41,-1,43,45,-1,-1,-1,-1,-1,-1,-1,-1,-1,-1,-1,-1,-1,-1,-1,-1,-1],"loss_changes":[1.1083908E0,1.1804032E0,8.3746314E-2,1.190188E0,2.14162E0,0E0,0E0,1.4191549E0,2.3981829E0,1.661624E0,2.69527E0,1.7890211E0,2.1225982E0,1.9542739E0,0E0,1.9075196E0,1.449882E0,0E0,9.07715E-1,3.5459352E-1,3.183016E-1,0E0,1.8742695E0,0E0,2.6414165E0,8.5035676E-1,1.8514032E0,0E0,1.0556059E0,5.0985962E-2,0E0,0E0,0E0,0E0,0E0,0E0,0E0,0E0,0E0,0E0,0E0,0E0,0E0,0E0,0E0,0E0,0E0],"parents":[2147483647,0,0,1,1,2,2,3,3,4,4,7,7,8,8,9,9,10,10,11,11,12,12,13,13,15,15,16,16,18,18,19,19,20,20,22,22,24,24,25,25,26,26,28,28,29,29],"right_children":[2,4,6,8,10,-1,-1,12,14,16,18,20,22,24,-1,26,28,-1,30,32,34,-1,36,-1,38,40,42,-1,44,46,-1,-1,-1,-1,-1,-1,-1,-1,-1,-1,-1,-1,-1,-1,-1,-1,-1],"split_conditions":[7.2887325E-1,5.739436E-1,6.454545E-1,7.7878785E-1,6.998012E-1,-1.8201621E-1,-4.0712185E-2,3.625E-1,4.8064333E-1,5.4274356E-1,7.4524283E-1,5.735931E-1,3.775E-1,4.4423896E-1,-1.3071775E-1,4.7898322E-1,4.15E-1,4.3873566E-1,6.969697E-1,7.3541963E-1,6.212121E-1,2.5288635E-1,5E-1,-7.684398E-2,6.038407E-1,3.888889E-1,5.2380955E-1,1.1922366E-1,4.4705883E-1,5.3926027E-1,1.7324635E-1,-2.3284559E-1,-4.0570952E-2,1.504176E-1,-2.5188806E-2,-3.0014783E-2,2.0690027E-1,4.7219938E-1,-3.46721E-2,-1.2600687E-1,1.1257632E-1,4.538329E-2,3.962825E-1,8.015651E-2,-1.8765588E-1,-1.10898964E-1,-1.3035339E-2],"split_indices":[9,9,3,3,5,0,0,11,8,5,5,0,11,2,0,5,11,0,3,2,0,0,38,0,2,14,0,0,6,2,0,0,0,0,0,0,0,0,0,0,0,0,0,0,0,0,0],"split_type":[0,0,0,0,0,0,0,0,0,0,0,0,0,0,0,0,0,0,0,0,0,0,0,0,0,0,0,0,0,0,0,0,0,0,0,0,0,0,0,0,0,0,0,0,0,0,0],"sum_hessian":[1.1034151E2,1.0692679E2,3.4147203E0,8.427056E1,2.2656225E1,2.171248E0,1.2434723E0,7.817274E1,6.0978246E0,1.7756588E1,4.8996377E0,9.141581E0,6.903116E1,4.1662006E0,1.9316242E0,9.244238E0,8.51235E0,1.7024267E0,3.197211E0,6.8421774E0,2.299403E0,1.6764814E0,6.7354675E1,1.119532E0,3.0466688E0,4.1638346E0,5.080404E0,1.7084918E0,6.8038583E0,2.1201515E0,1.0770594E0,5.2794023E0,1.5627749E0,1.0418442E0,1.2575587E0,6.51991E1,2.1555743E0,1.8710736E0,1.175595E0,3.058926E0,1.1049082E0,3.5250568E0,1.5553467E0,1.048274E0,5.7555842E0,1.1109303E0,1.0092212E0],"tree_param":{"num_deleted":"0","num_feature":"73","num_nodes":"47","size_leaf_vector":"0"}},{"base_weights":[-4.274333E-3,-2.0562602E-2,5.3290206E-1,-1.7577807E-3,-5.229266E-1,-9.4226375E-2,9.330025E-1,-2.219123E-2,4.4820735E-1,-2.0389782E-1,3.1237243E-2,-1.3666013E-1,8.108984E-1,5.6050558E-2,-5.909922E-1,-6.1099008E-2,2.8530923E-1,-2.0811552E-1,6.6833013E-1,-6.901756E-1,-1.4373683E-2,8.092192E-1,-9.992651E-2,8.860269E-2,9.431285E-1],"categories":[],"categories_nodes":[],"categories_segments":[],"categories_sizes":[],"default_left":[1,1,1,1,0,0,0,1,1,1,1,0,0,1,1,1,1,0,0,0,0,0,0,0,0],"id":20,"left_children":[1,3,5,7,-1,-1,-1,9,11,13,15,-1,-1,17,19,21,23,-1,-1,-1,-1,-1,-1,-1,-1],"loss_changes":[9.7648245E-1,1.0199572E0,9.120935E-1,9.7690797E-1,0E0,0E0,0E0,9.922833E-1,1.0899026E0,2.3684542E0,1.8788781E0,0E0,0E0,2.5325377E0,5.282774E-1,2.0752554E0,2.6759815E0,0E0,0E0,0E0,0E0,0E0,0E0,0E0,0E0],"parents":[2147483647,0,0,1,1,2,2,3,3,7,7,8,8,9,9,10,10,13,13,14,14,15,15,16,16],"right_children":[2,4,6,8,-1,-1,-1,10,12,14,16,-1,-1,18,20,22,24,-1,-1,-1,-1,-1,-1,-1,-1],"split_conditions":[5E-1,7.2887325E-1,6.333333E-1,5E-1,-1.56878E-1,-2.8267914E-2,2.7990076E-1,5E-1,1.6666667E-1,6.205623E-1,5.545118E-1,-4.099804E-2,2.4326953E-1,5E-1,3.888889E-1,2.3627311E-1,7.1258163E-1,-6.243466E-2,2.0049904E-1,-2.070527E-1,-4.312105E-3,2.4276577E-1,-2.9977953E-2,2.6580809E-2,2.8293857E-1],"split_indices":[37,9,3,46,0,0,0,71,14,5,8,0,0,66,14,2,5,0,0,0,0,0,0,0,0],"split_type":[0,0,0,0,0,0,0,0,0,0,0,0,0,0,0,0,0,0,0,0,0,0,0,0,0],"sum_hessian":[1.09349785E2,1.0706508E2,2.2847075E0,1.0416924E2,2.8958328E0,1.187648E0,1.0970594E0,1.00553665E2,3.6155787E0,2.220834E1,7.834532E1,1.6224527E0,1.9931259E0,1.3797801E1,8.410539E0,5.801919E1,2.0326134E1,1.0100199E1,3.6976016E0,7.008141E0,1.4023972E0,1.6304849E0,5.6388706E1,1.6520678E1,3.8054576E0],"tree_param":{"num_deleted":"0","num_feature":"73","num_nodes":"25","size_leaf_vector":"0"}},{"base_weights":[1.3199562E-3,-5.2367204E-1,1.8876618E-2,1.1084577E0,-2.1670738E-3,-6.2086755E-1,2.3767224E-2,5.997404E-1,2.9803516E-4,-1.757419E-1,9.6738786E-1,-2.538991E-1,6.759351E-2,-4.0039963E-1,3.0078533E-1,3.428189E-1,2.7413138E-3],"categories":[],"categories_nodes":[],"categories_segments":[],"categories_sizes":[],"default_left":[1,0,1,0,1,0,1,1,1,0,0,1,1,0,0,0,0],"id":21,"left_children":[1,-1,3,-1,5,-1,7,9,11,-1,-1,13,15,-1,-1,-1,-1],"loss_changes":[1.0144567E0,0E0,2.4426744E0,0E0,1.7061146E0,0E0,1.3804047E0,1.3098993E0,1.712979E0,0E0,0E0,1.8237715E0,1.4122132E0,0E0,0E0,0E0,0E0],"parents":[2147483647,0,0,2,2,4,4,6,6,7,7,8,8,11,11,12,12],"right_children":[2,-1,4,-1,6,-1,8,10,12,-1,-1,14,16,-1,-1,-1,-1],"split_conditions":[2.2347084E-1,-1.5710162E-1,2.4395448E-1,3.3253732E-1,2.9857752E-1,-1.8626027E-1,3.246088E-1,5.5588233E-1,4.075E-1,-5.272257E-2,2.9021636E-1,7.3636365E-1,4.675E-1,-1.2011989E-1,9.0235606E-2,1.0284567E-1,8.2239415E-4],"split_indices":[2,0,2,0,2,0,2,6,11,0,0,3,11,0,0,0,0],"split_type":[0,0,0,0,0,0,0,0,0,0,0,0,0,0,0,0,0],"sum_hessian":[1.0798991E2,2.5616632E0,1.05428246E2,1.0185127E0,1.0440973E2,3.2776077E0,1.01132126E2,2.9981494E0,9.813397E1,1.1321265E0,1.8660228E0,1.996117E1,7.8172806E1,1.6010662E1,3.9505084E0,1.4090054E1,6.4082756E1],"tree_param":{"num_deleted":"0","num_feature":"73","num_nodes":"17","size_leaf_vector":"0"}},{"base_weights":[1.5149616E-3,2.5919905E-1,-3.4342166E-2,7.9573655E-1,5.522724E-2,-6.0890965E-2,4.1227788E-1,-2.1692333E-1,7.5811976E-1,-7.9257324E-2,5.05112E-1,-4.3551356E-2,5.981249E-1,-2.9098382E-2,-6.478866E-1,-5.8551717E-1,-5.6389082E-2,-1.3199653E-1,8.893095E-1,-4.4480878E-1,2.0965733E-1,4.8042035E-1,-7.922763E-2,-2.4410671E-1,4.5660108E-1,-1.5502773E-1,8.2902044E-1,-2.5799112E-2,-2.980511E-1],"categories":[],"categories_nodes":[],"categories_segments":[],"categories_sizes":[],"default_left":[1,1,1,0,1,1,1,1,0,1,1,0,0,1,0,0,1,0,0,0,1,1,1,0,0,0,0,0,0],"id":22,"left_children":[1,3,5,-1,7,9,11,13,-1,15,17,-1,-1,19,-1,-1,21,-1,-1,-1,23,25,27,-1,-1,-1,-1,-1,-1],"loss_changes":[1.0131242E0,1.4217837E0,1.1668501E0,0E0,2.2263272E0,9.9391425E-1,4.9464244E-1,6.730439E-1,0E0,1.0059295E0,8.5650486E-1,0E0,0E0,7.8804594E-1,0E0,0E0,1.1042886E0,0E0,0E0,0E0,6.8585855E-1,9.4606036E-1,9.776351E-1,0E0,0E0,0E0,0E0,0E0,0E0],"parents":[2147483647,0,0,1,1,2,2,4,4,5,5,6,6,7,7,9,9,10,10,13,13,16,16,20,20,21,21,22,22],"right_children":[2,4,6,-1,8,10,12,14,-1,16,18,-1,-1,20,-1,-1,22,-1,-1,-1,24,26,28,-1,-1,-1,-1,-1,-1],"split_conditions":[5E-1,1.25E-1,7.904694E-1,2.3872097E-1,6.525E-1,5E-1,3.9788735E-1,2.9807693E-1,2.2743593E-1,3.9117646E-1,4.5004272E-1,-1.3065407E-2,1.7943749E-1,5.672831E-1,-1.9436598E-1,-1.7565516E-1,4.2058825E-1,-3.959896E-2,2.6679286E-1,-1.3344264E-1,5.245669E-1,5.035211E-1,5.822511E-1,-7.323202E-2,1.3698032E-1,-4.650832E-2,2.4870615E-1,-7.739734E-3,-8.941533E-2],"split_indices":[69,12,2,0,11,37,9,1,0,6,8,0,0,2,0,0,6,0,0,0,5,9,0,0,0,0,0,0,0],"split_type":[0,0,0,0,0,0,0,0,0,0,0,0,0,0,0,0,0,0,0,0,0,0,0,0,0,0,0,0,0],"sum_hessian":[1.0768434E2,1.2393181E1,9.529116E1,2.6145446E0,9.778636E0,9.075972E1,4.531441E0,7.5476656E0,2.2309701E0,8.874014E1,2.0195794E0,1.5341859E0,2.9972556E0,6.0001597E0,1.5475056E0,2.771885E0,8.596826E1,1.0066702E0,1.012909E0,1.8740761E0,4.126084E0,2.6906343E0,8.3277626E1,1.458165E0,2.6679187E0,1.1498703E0,1.540764E0,6.783319E1,1.544443E1],"tree_param":{"num_deleted":"0","num_feature":"73","num_nodes":"29","size_leaf_vector":"0"}},{"base_weights":[5.736135E-3,1.8487291E-2,-6.2296444E-1,3.368142E-2,-5.034278E-1,5.0648376E-2,-4.0512103E-1,1.5777392E-2,2.9297763E-1,-5.4823494E-1,-9.061421E-3,5.5468574E-2,-5.147091E-1,-4.4635338E-1,7.24559E-1,6.9143237E-3,4.1168678E-1,-6.414548E-1,7.000813E-2,-6.8839353E-1,2.7037194E-1,1.4195142E0,8.211901E-2],"categories":[],"categories_nodes":[],"categories_segments":[],"categories_sizes":[],"default_left":[1,1,0,1,0,1,1,1,1,0,0,1,1,1,1,0,0,0,0,0,0,0,0],"id":23,"left_children":[1,3,-1,5,-1,7,9,11,13,-1,-1,15,17,19,21,-1,-1,-1,-1,-1,-1,-1,-1],"loss_changes":[8.62642E-1,8.4985054E-1,0E0,7.873411E-1,0E0,8.4083414E-1,2.1866268E-1,1.8924322E0,4.3212466E0,0E0,0E0,1.4372506E0,5.087979E-1,1.0945973E0,3.5856786E0,0E0,0E0,0E0,0E0,0E0,0E0,0E0,0E0],"parents":[2147483647,0,0,1,1,3,3,5,5,6,6,7,7,8,8,11,11,12,12,13,13,14,14],"right_children":[2,4,-1,6,-1,8,10,12,14,-1,-1,16,18,20,22,-1,-1,-1,-1,-1,-1,-1,-1],"split_conditions":[5E-1,5E-1,-1.8688934E-1,8.029412E-1,-1.5102835E-1,7.147059E-1,5.739436E-1,6.911765E-1,4.1602618E-1,-1.644705E-1,-2.7184265E-3,6.6176474E-1,3.888889E-1,7.021337E-1,3.7878788E-1,2.0742973E-3,1.2350604E-1,-1.9243646E-1,2.100244E-2,-2.0651807E-1,8.111159E-2,4.2585427E-1,2.4635704E-2],"split_indices":[26,60,0,6,0,6,9,6,8,0,0,6,14,2,0,0,0,0,0,0,0,0,0],"split_type":[0,0,0,0,0,0,0,0,0,0,0,0,0,0,0,0,0,0,0,0,0,0,0],"sum_hessian":[1.0516955E2,1.0403023E2,1.139322E0,1.01996346E2,2.0338786E0,9.905097E1,2.9453788E0,8.752177E1,1.1529203E1,1.8813429E0,1.0640358E0,8.2262314E1,5.2594557E0,4.2368817E0,7.2923217E0,7.329171E1,8.970601E0,4.2427464E0,1.0167093E0,3.196832E0,1.0400498E0,2.9219522E0,4.3703694E0],"tree_param":{"num_deleted":"0","num_feature":"73","num_nodes":"23","size_leaf_vector":"0"}},{"base_weights":[-9.0596854E-4,-1.5201817E-2,5.3298426E-1,-8.628758E-2,1.2698138E-1,1.7991517E-2,-2.7736503E-1,-2.1760017E-1,3.140985E-1,-8.388364E-2,3.9246476E-1,-4.112236E-1,1.9956487E-1,2.6547858E-1,-3.532479E-1,5.4562384E-1,-1.7162323E-1,1.2587498E-1,-4.057266E-1,5.43345E-1,-3.3118123E-1,-4.758176E-1,3.0177087E-1,-1.8763812E-1,5.102456E-1,9.211227E-1,-4.044718E-1,9.623782E-2,-5.6675816E-1,2.8836092E-1,1.3896377E0,-4.968905E-1,4.444906E-1,-1.1016261E-2,1.0627769E0,1.1846868E-1,-5.453017E-1,4.1384134E-2,7.414104E-1,-6.3999844E-1,-1.1184289E-1,-4.592798E-1,1.4057072E-1,6.5763867E-1,1.1299293E-1,-3.492763E-1,5.119664E-1,-6.686111E-1,-1.7723655E-2,-2.55752E-2,8.4772897E-1,1.6590768E0,3.7767607E-1,6.6938795E-2,-6.674421E-1,8.028903E-1,-1.2427209E-1],"categories":[],"categories_nodes":[],"categories_segments":[],"categories_sizes":[],"default_left":[1,1,0,1,1,1,1,1,1,1,1,1,1,1,1,1,1,1,1,1,0,1,0,1,1,0,0,1,1,1,1,1,1,0,0,0,0,0,0,0,0,0,0,0,0,0,0,0,0,0,0,0,0,0,0,0,0],"id":24,"left_children":[1,3,-1,5,7,9,11,13,15,17,19,21,23,25,27,29,31,33,35,37,-1,39,-1,41,43,-1,-1,45,47,49,51,53,55,-1,-1,-1,-1,-1,-1,-1,-1,-1,-1,-1,-1,-1,-1,-1,-1,-1,-1,-1,-1,-1,-1,-1,-1],"loss_changes":[8.1698596E-1,1.0640111E0,0E0,1.4008892E0,2.3335705E0,1.797764E0,1.665015E0,9.4267476E-1,2.7001245E0,2.5618348E0,1.2794095E0,1.0503142E0,8.304274E-1,1.870869E0,1.0664043E0,3.0593543E0,1.8726518E0,2.9974096E0,1.1556096E0,8.3539486E-1,0E0,1.0303793E0,0E0,3.7214223E-1,1.3983727E-1,0E0,0E0,9.660225E-1,3.9599514E-1,2.3878872E0,3.170061E-1,6.088251E-1,7.879051E-1,0E0,0E0,0E0,0E0,0E0,0E0,0E0,0E0,0E0,0E0,0E0,0E0,0E0,0E0,0E0,0E0,0E0,0E0,0E0,0E0,0E0,0E0,0E0,0E0],"parents":[2147483647,0,0,1,1,3,3,4,4,5,5,6,6,7,7,8,8,9,9,10,10,11,11,12,12,13,13,14,14,15,15,16,16,17,17,18,18,19,19,21,21,23,23,24,24,27,27,28,28,29,29,30,30,31,31,32,32],"right_children":[2,4,-1,6,8,10,12,14,16,18,20,22,24,26,28,30,32,34,36,38,-1,40,-1,42,44,-1,-1,46,48,50,52,54,56,-1,-1,-1,-1,-1,-1,-1,-1,-1,-1,-1,-1,-1,-1,-1,-1,-1,-1,-1,-1,-1,-1,-1,-1],"split_conditions":[5E-1,5.0865805E-1,1.5989529E-1,3.9610392E-1,5.7272726E-1,6.017649E-1,6.945946E-1,5.3896105E-1,4.9231428E-1,4.6185595E-1,7.302875E-1,5E-1,4.2954737E-1,1.7500001E-1,3.8380283E-1,4.6883005E-1,6.318635E-1,4.4534588E-1,4.6363637E-1,5.382353E-1,-9.935437E-2,5.3672075E-1,9.053126E-2,6.347629E-1,5.5757576E-1,2.7633682E-1,-1.2134155E-1,5E-1,3.888889E-1,5.975E-1,4.8007402E-1,3.7467995E-1,5.3E-1,-3.3048785E-3,3.1883308E-1,3.5540607E-2,-1.635905E-1,1.24152405E-2,2.2242312E-1,-1.9199954E-1,-3.355287E-2,-1.3778394E-1,4.2171218E-2,1.9729161E-1,3.389788E-2,-1.04782894E-1,1.5358993E-1,-2.0058334E-1,-5.3170966E-3,-7.6725604E-3,2.543187E-1,4.9772307E-1,1.1330283E-1,2.008164E-2,-2.0023264E-1,2.408671E-1,-3.728163E-2],"split_indices":[19,0,0,0,3,8,2,0,8,8,8,14,8,12,9,8,2,8,3,6,0,8,0,5,3,0,0,66,14,11,8,2,11,0,0,0,0,0,0,0,0,0,0,0,0,0,0,0,0,0,0,0,0,0,0,0,0],"split_type":[0,0,0,0,0,0,0,0,0,0,0,0,0,0,0,0,0,0,0,0,0,0,0,0,0,0,0,0,0,0,0,0,0,0,0,0,0,0,0,0,0,0,0,0,0,0,0,0,0,0,0,0,0,0,0,0,0],"sum_hessian":[1.0498005E2,1.03188515E2,1.7915275E0,6.905632E1,3.4132202E1,4.5261196E1,2.379512E1,1.1954584E1,2.2177616E1,3.619136E1,9.069837E0,1.8687828E1,5.1072917E0,2.4110515E0,9.543532E0,1.4935227E1,7.242389E0,2.2279661E1,1.39117E1,7.711206E0,1.3586305E0,1.7440453E1,1.2473754E0,2.4499493E0,2.6573424E0,1.0290571E0,1.3819942E0,3.250268E0,6.293265E0,1.2474533E1,2.460694E0,4.8666363E0,2.3757527E0,2.0301622E1,1.9780389E0,2.957096E0,1.0954604E1,2.523866E0,5.18734E0,1.1496348E1,5.9441047E0,1.1219863E0,1.3279631E0,1.4601243E0,1.1972182E0,1.6460884E0,1.6041796E0,5.124761E0,1.1685035E0,8.601411E0,3.8731225E0,1.43828E0,1.0224142E0,1.2713095E0,3.595327E0,1.2048719E0,1.1708808E0],"tree_param":{"num_deleted":"0","num_feature":"73","num_nodes":"57","size_leaf_vector":"0"}},{"base_weights":[6.33263E-3,2.464008E-1,-2.4799628E-2,7.439524E-1,6.000562E-2,-5.3820133E-1,-6.6871797E-3,-1.9429414E-1,7.157319E-1,5.715686E-1,-2.8337305E-2,-3.7593803E-1,1.7112233E-1,2.5762653E-2,8.5762095E-1,-4.2330155E-1,-2.046698E-3,-6.623953E-1,-6.1385907E-2,4.46358E-1,-1.796724E-1,-3.6101244E-2,-6.803598E-1,6.469932E-1,-3.7848484E-2,-2.908443E-1,2.1469839E-1,-3.78391E-1,3.5835662E-1,1.3502789E0,-3.7949648E-1,-6.8191043E-3,-5.631578E-1],"categories":[],"categories_nodes":[],"categories_segments":[],"categories_sizes":[],"default_left":[1,1,1,0,1,0,1,1,0,1,1,1,1,0,0,1,1,0,1,0,0,1,0,1,1,0,0,0,0,0,0,0,0],"id":25,"left_children":[1,3,5,-1,7,-1,9,11,-1,13,15,17,19,-1,-1,21,23,-1,25,-1,-1,27,-1,29,31,-1,-1,-1,-1,-1,-1,-1,-1],"loss_changes":[7.810795E-1,1.0677452E0,8.5837746E-1,0E0,1.7754576E0,0E0,1.1498173E0,5.8588606E-1,0E0,4.9548948E-1,9.15349E-1,4.604531E-1,3.9845142E-1,0E0,0E0,5.230576E-1,1.9701682E0,0E0,3.0018663E-1,0E0,0E0,5.745831E-1,0E0,3.712391E0,1.3050542E0,0E0,0E0,0E0,0E0,0E0,0E0,0E0,0E0],"parents":[2147483647,0,0,1,1,2,2,4,4,6,6,7,7,9,9,10,10,11,11,12,12,15,15,16,16,18,18,21,21,23,23,24,24],"right_children":[2,4,6,-1,8,-1,10,12,-1,14,16,18,20,-1,-1,22,24,-1,26,-1,-1,28,-1,30,32,-1,-1,-1,-1,-1,-1,-1,-1],"split_conditions":[5E-1,1.25E-1,2.625E-1,2.2318573E-1,6.525E-1,-1.614604E-1,2.925E-1,2.777778E-1,2.1471958E-1,7.2424245E-1,3.5018462E-1,6.251778E-1,5.74111E-1,7.728796E-3,2.572863E-1,5.617647E-1,3.8213575E-1,-1.9871859E-1,4.8591548E-1,1.3390741E-1,-5.3901725E-2,5.934566E-1,-2.0410794E-1,4.675E-1,6.9783664E-1,-8.725329E-2,6.440952E-2,-1.1351731E-1,1.0750699E-1,4.050837E-1,-1.1384895E-1,-2.0457313E-3,-1.6894734E-1],"split_indices":[69,12,11,0,11,0,11,14,0,3,5,2,2,0,0,6,5,0,9,0,0,2,0,11,8,0,0,0,0,0,0,0,0],"split_type":[0,0,0,0,0,0,0,0,0,0,0,0,0,0,0,0,0,0,0,0,0,0,0,0,0,0,0,0,0,0,0,0,0],"sum_hessian":[1.02690506E2,1.0994521E1,9.1695984E1,2.1811178E0,8.813403E0,2.1462266E0,8.954976E1,6.8576193E0,1.9557837E0,2.3151045E0,8.723466E1,4.561408E0,2.2962112E0,1.1709398E0,1.1441648E0,4.5018854E0,8.273277E1,1.8085531E0,2.7528548E0,1.1340274E0,1.162184E0,2.2512798E0,2.2506056E0,3.432603E0,7.930016E1,1.4741781E0,1.2786767E0,1.2271528E0,1.0241271E0,1.8498021E0,1.5828006E0,7.583374E1,3.4664254E0],"tree_param":{"num_deleted":"0","num_feature":"73","num_nodes":"33","size_leaf_vector":"0"}},{"base_weights":[6.4528096E-3,-2.8479246E-2,2.0288679E-1,-1.4360254E-1,7.353826E-2,5.5217737E-1,-1.9882636E-1,-7.026785E-2,-7.501889E-1,8.0732554E-1,-7.7773337E-3,6.9243884E-1,2.876006E-3,3.3139032E-1,-4.1027758E-1,-5.598283E-1,1.2968787E-3,-6.896002E-2,1.5520221E0,-4.1059476E-1,9.819913E-2,7.90183E-1,2.3496431E-1,-5.397018E-1,1.2379232E-1,2.1390177E-2,-7.170519E-1,-1.6470702E-1,2.5189656E-1,4.6546152E-1,-5.471896E-1,4.7559196E-1,-6.117023E-1,2.5335544E-1,-3.2240298E-1,-5.8277704E-2,-6.761436E-1,4.4285288E-1,-3.5007587E-1,1.0000203E0,-1.9771753E-1,-7.4788E-1,1.503793E-1,7.479908E-1,9.94288E-2,-7.6379156E-1,-1.1561652E-1],"categories":[],"categories_nodes":[],"categories_segments":[],"categories_sizes":[],"default_left":[1,1,1,1,1,1,1,1,0,1,1,1,0,0,1,1,1,1,0,1,1,0,0,1,0,0,0,1,1,0,0,0,1,1,1,0,0,0,0,0,0,0,0,0,0,0,0],"id":26,"left_children":[1,3,5,7,9,11,13,15,-1,17,19,21,-1,-1,23,25,27,29,-1,31,33,-1,-1,35,-1,-1,-1,37,39,-1,-1,-1,41,43,45,-1,-1,-1,-1,-1,-1,-1,-1,-1,-1,-1,-1],"loss_changes":[7.0495486E-1,1.0368766E0,2.285667E0,1.7886785E0,2.810192E0,6.574855E-1,1.0270067E0,1.3332322E0,0E0,3.1724474E0,1.8885113E0,1.1904025E-1,0E0,0E0,4.904251E-1,4.588108E-1,1.463407E0,1.0509512E0,0E0,1.9324453E0,2.3711948E0,0E0,0E0,2.968874E-1,0E0,0E0,0E0,2.5387049E0,4.91196E0,0E0,0E0,0E0,9.369345E-1,1.9195986E0,8.1478417E-1,0E0,0E0,0E0,0E0,0E0,0E0,0E0,0E0,0E0,0E0,0E0,0E0],"parents":[2147483647,0,0,1,1,2,2,3,3,4,4,5,5,6,6,7,7,9,9,10,10,11,11,14,14,15,15,16,16,17,17,19,19,20,20,23,23,27,27,28,28,32,32,33,33,34,34],"right_children":[2,4,6,8,10,12,14,16,-1,18,20,22,-1,-1,24,26,28,30,-1,32,34,-1,-1,36,-1,-1,-1,38,40,-1,-1,-1,42,44,46,-1,-1,-1,-1,-1,-1,-1,-1,-1,-1,-1,-1],"split_conditions":[3.888889E-1,5.611664E-1,5.0042677E-1,5.401138E-1,5.788051E-1,6.7665434E-1,4.3964782E-1,2.8849986E-1,-2.2505668E-1,4.82684E-1,6.194879E-1,7.030303E-1,8.6280185E-4,9.94171E-2,6.0276115E-1,1.25E-1,6.3823533E-1,5.886112E-1,4.6560666E-1,7.5E-2,6.878788E-1,2.3705491E-1,7.0489295E-2,3.1411898E-1,3.71377E-2,6.4170533E-3,-2.1511559E-1,3.8300598E-1,6.735294E-1,1.3963847E-1,-1.6415688E-1,1.4267759E-1,7.6060605E-1,6.459459E-1,6.4822185E-1,-1.7483313E-2,-2.0284308E-1,1.3285588E-1,-1.05022766E-1,3.000061E-1,-5.931526E-2,-2.24364E-1,4.511379E-2,2.2439724E-1,2.9828642E-2,-2.2913748E-1,-3.468496E-2],"split_indices":[14,2,2,2,2,5,5,8,0,0,2,3,0,0,8,12,6,5,0,12,3,0,0,8,0,0,0,8,6,0,0,0,3,2,2,0,0,0,0,0,0,0,0,0,0,0,0],"split_type":[0,0,0,0,0,0,0,0,0,0,0,0,0,0,0,0,0,0,0,0,0,0,0,0,0,0,0,0,0,0,0,0,0,0,0,0,0,0,0,0,0,0,0,0,0,0,0],"sum_hessian":[1.0089345E2,8.63863E1,1.4507146E1,4.039467E1,4.599163E1,7.5595455E0,6.9476E0,3.7033283E1,3.361384E0,3.6974804E0,4.229415E1,5.8143086E0,1.7452365E0,1.8190612E0,5.128539E0,3.8529966E0,3.3180286E1,2.1155307E0,1.5819497E0,8.210724E0,3.4083427E1,4.191483E0,1.6228257E0,4.119654E0,1.0088848E0,1.0042976E0,2.848699E0,2.0165121E1,1.3015165E1,1.0116786E0,1.103852E0,1.2662207E0,6.944504E0,2.518905E1,8.894377E0,1.2248814E0,2.8947728E0,4.3894253E0,1.5775697E1,4.4261737E0,8.588992E0,5.907515E0,1.0369885E0,5.0622797E0,2.0126772E1,1.9782184E0,6.9161587E0],"tree_param":{"num_deleted":"0","num_feature":"73","num_nodes":"47","size_leaf_vector":"0"}},{"base_weights":[2.0359328E-3,-1.1914751E-1,5.8370337E-2,5.487748E-1,-2.0183842E-1,-2.0807548E-1,1.3778898E-1,1.0378712E0,-2.725262E-3,-4.747844E-1,-3.4736294E-2,-3.3884013E-1,3.0084494E-1,1.0342957E0,8.805148E-2,1.6944052E-1,-5.788979E-1,6.1760896E-1,-1.2156671E-1,-6.257346E-1,-8.014922E-2,5.266741E-1,-7.340974E-2,5.350802E-1,-1.530393E-2,1.13189004E-1,-7.32167E-1,-2.9483777E-1,2.8303257E-1,-7.4609274E-1,-7.931769E-3,8.138842E-1,-3.223448E-1,8.30151E-1,-4.2274204E-1,-9.552172E-2,5.3107476E-1,-8.1247354E-1,-1.0156833E-1,9.943141E-2,-4.361608E-1,9.69119E-1,-5.986265E-2,-5.075211E-1,3.768248E-1,1.7117018E-1,1.3621744E0,-6.873169E-1,-2.700317E-2,8.142011E-1,-3.1545344E-1],"categories":[],"categories_nodes":[],"categories_segments":[],"categories_sizes":[],"default_left":[1,1,1,1,1,1,1,0,0,1,1,1,1,0,1,0,1,0,1,1,1,0,0,1,1,0,1,1,1,0,0,0,1,1,0,1,1,0,0,0,0,0,0,0,0,0,0,0,0,0,0],"id":27,"left_children":[1,3,5,7,9,11,13,-1,-1,15,17,19,21,-1,23,-1,25,-1,27,29,31,-1,-1,33,35,-1,37,39,41,-1,-1,-1,43,45,-1,47,49,-1,-1,-1,-1,-1,-1,-1,-1,-1,-1,-1,-1,-1,-1],"loss_changes":[6.8764246E-1,1.8765419E0,1.4832088E0,1.0253831E0,1.3143935E0,1.1788406E0,2.2969625E0,0E0,0E0,8.35999E-1,1.161394E0,9.402355E-1,3.6301273E-1,0E0,2.403038E0,0E0,1.1115386E0,0E0,1.3285763E0,4.5364356E-1,2.0301237E0,0E0,0E0,3.109782E0,1.9385396E0,0E0,3.2631207E-1,7.635467E-1,1.4308935E0,0E0,0E0,0E0,1.1156774E0,2.5014462E0,0E0,1.5387356E0,1.614975E0,0E0,0E0,0E0,0E0,0E0,0E0,0E0,0E0,0E0,0E0,0E0,0E0,0E0,0E0],"parents":[2147483647,0,0,1,1,2,2,3,3,4,4,5,5,6,6,9,9,10,10,11,11,12,12,14,14,16,16,18,18,19,19,20,20,23,23,24,24,26,26,27,27,28,28,32,32,33,33,35,35,36,36],"right_children":[2,4,6,8,10,12,14,-1,-1,16,18,20,22,-1,24,-1,26,-1,28,30,32,-1,-1,34,36,-1,38,40,42,-1,-1,-1,44,46,-1,48,50,-1,-1,-1,-1,-1,-1,-1,-1,-1,-1,-1,-1,-1,-1],"split_conditions":[5.090883E-1,2.5704223E-1,3.4400797E-1,4.625E-1,3.7012988E-1,3.888889E-1,3.5197836E-1,3.1136137E-1,-8.1757864E-4,3.4011382E-1,3.831169E-1,5.677098E-1,5.041252E-1,3.1028873E-1,5.423175E-1,5.083216E-2,4.7941178E-1,1.8528269E-1,2.777778E-1,7.060606E-1,5.796586E-1,1.5800223E-1,-2.2022923E-2,6.939394E-1,7.230441E-1,3.3956703E-2,3.888889E-1,1.25E-1,3.9302987E-1,-2.2382782E-1,-2.3795308E-3,2.4416527E-1,6.7E-1,5.909091E-1,-1.2682262E-1,1.8398269E-1,1.3461539E-1,-2.4374206E-1,-3.04705E-2,2.9829424E-2,-1.3084824E-1,2.9073572E-1,-1.7958796E-2,-1.5225634E-1,1.1304744E-1,5.1351056E-2,4.0865234E-1,-2.0619507E-1,-8.100952E-3,2.4426034E-1,-9.463604E-2],"split_indices":[5,9,8,11,0,14,8,0,0,2,0,2,2,0,5,0,6,0,14,3,2,0,0,3,2,0,14,12,2,0,0,0,11,3,0,0,1,0,0,0,0,0,0,0,0,0,0,0,0,0,0],"split_type":[0,0,0,0,0,0,0,0,0,0,0,0,0,0,0,0,0,0,0,0,0,0,0,0,0,0,0,0,0,0,0,0,0,0,0,0,0,0,0,0,0,0,0,0,0,0,0,0,0,0,0],"sum_hessian":[9.870822E1,3.097072E1,6.77375E1,2.790936E0,2.8179785E1,1.5182144E1,5.2555355E1,1.0117562E0,1.7791797E0,1.0001678E1,1.8178106E1,1.2344485E1,2.8376582E0,1.7219802E0,5.0833374E1,1.3041997E0,8.697478E0,1.4173005E0,1.6760807E1,5.1804214E0,7.1640644E0,1.5157671E0,1.3218911E0,8.76148E0,4.2071896E1,1.6243271E0,7.0731516E0,1.19251175E1,4.835689E0,4.1619506E0,1.0184709E0,1.0239276E0,6.1401367E0,6.7999516E0,1.9615291E0,3.7405323E1,4.6665716E0,6.0183063E0,1.0548455E0,3.224814E0,8.700303E0,1.0028467E0,3.8328424E0,5.071144E0,1.0689925E0,3.6279693E0,3.1719823E0,2.9442973E0,3.4461025E1,3.5256014E0,1.1409702E0],"tree_param":{"num_deleted":"0","num_feature":"73","num_nodes":"51","size_leaf_vector":"0"}},{"base_weights":[8.772819E-3,-4.8970047E-1,2.4477463E-2,1.0182809E0,2.9398892E-3,-5.837094E-1,2.8336836E-2,4.4911918E-1,8.460779E-3,9.060492E-1,-1.7914921E-2,-2.1149269E-1,6.356698E-2,4.4974828E-1,-3.1577042E-1,-1.7539458E-1,1.2962173E-1],"categories":[],"categories_nodes":[],"categories_segments":[],"categories_sizes":[],"default_left":[1,0,1,0,1,0,1,1,1,0,0,1,1,0,0,0,0],"id":28,"left_children":[1,-1,3,-1,5,-1,7,9,11,-1,-1,13,15,-1,-1,-1,-1],"loss_changes":[7.702805E-1,0E0,2.0273788E0,0E0,1.4148169E0,0E0,7.565178E-1,8.8718647E-1,1.0779874E0,0E0,0E0,1.371221E0,1.1434544E0,0E0,0E0,0E0,0E0],"parents":[2147483647,0,0,2,2,4,4,6,6,7,7,8,8,11,11,12,12],"right_children":[2,-1,4,-1,6,-1,8,10,12,-1,-1,14,16,-1,-1,-1,-1],"split_conditions":[2.2347084E-1,-1.4691015E-1,2.3570412E-1,3.0548427E-1,2.9857752E-1,-1.7511283E-1,3.246088E-1,3.6363637E-1,4.075E-1,2.7181476E-1,-5.3744763E-3,2.4565898E-1,5E-1,1.3492449E-1,-9.473113E-2,-5.2618377E-2,3.888652E-2],"split_indices":[2,0,2,0,2,0,2,0,11,0,0,8,71,0,0,0,0],"split_type":[0,0,0,0,0,0,0,0,0,0,0,0,0,0,0,0,0],"sum_hessian":[9.586516E1,2.006178E0,9.385898E1,1.0092683E0,9.284971E1,2.9406054E0,8.99091E1,3.0812876E0,8.682782E1,1.0823487E0,1.998939E0,1.6826767E1,7.000105E1,1.8408257E0,1.4985941E1,1.4801052E1,5.52E1],"tree_param":{"num_deleted":"0","num_feature":"73","num_nodes":"17","size_leaf_vector":"0"}},{"base_weights":[7.3560523E-3,2.4323736E-1,-2.1828711E-2,6.9589335E-1,6.97547E-2,6.590835E-2,-1.3995178E-1,-1.8079434E-1,6.837484E-1,-6.558507E-2,4.973111E-1,-4.0428156E-1,2.5274824E-2,-4.7209466E-1,-2.0625433E-3,7.292157E-2,-5.129428E-1,1.1074344E0,1.3167253E-1,-5.783277E-1,1.4870065E-1,4.45238E-1,-1.0412685E-1,3.345808E-1,-1.6434872E-1,-6.461106E-2,4.8530397E-1,-6.4750534E-1,1.3834214E-1,-2.5845093E-1,1.6273652E0,-3.3215418E-1,4.1928983E-1,-6.57953E-1,8.288716E-2,-5.357325E-1,6.596301E-1,-3.9428884E-1,7.196009E-1,-3.5464352E-1,3.2537776E-1,-3.381177E-1,1.9999044E-1,2.3355454E-1,-2.1895345E-1,-2.14872E-1,1.0746394E0,-7.291825E-1,-6.7880034E-2,2.2084322E0,3.7959468E-1,-5.735244E-1,1.5624474E-1,-2.934727E-1,7.0870227E-1,